tree
version=v4
num_class=1
num_tree_per_iteration=1
label_index=0
max_feature_idx=40
objective=regression
feature_names=sp_followers sp_monthly_listeners sp_popularity sp_playlist_total_reach ins_followers twitter_followers tiktok_followers tiktok_likes ycs_subscribers ycs_views youtube_daily_video_views youtube_monthly_video_views deezer_fans shazam_count pandora_lifetime_streams pandora_lifetime_stations_added band num_sp_editorial_playlists num_sp_playlists sp_editorial_playlist_total_reach num_am_editorial_playlists num_am_playlists num_de_editorial_playlists num_de_playlists de_playlist_total_reach de_editorial_playlist_total_reach num_az_editorial_playlists num_az_playlists num_yt_editorial_playlists num_yt_playlists yt_playlist_total_reach tiktok_top_video_views tiktok_top_video_comments tiktok_track_posts major_record_label pronoun_short genre_short country_short log_ins_sp_ratio log_tiktok_sp_ratio log_youtube_sp_ratio
feature_infos=[4.499809670330265:18.991053682860048] [4.3944491546724391:18.71459485932137] [0:96] [7.0925737159746784:20.770635076842829] [2.7725887222397811:19.733561992985813] [0.69314718055994529:18.264656910868421] [0.69314718055994529:18.343799710415542] [0:22.390972657693165] [0:18.420680753952364] [0:24.515770685963918] [2.3978952727983707:16.659902773191334] [4.1743872698956368:20.640786834665818] [0.69314718055994529:16.480011298389744] [0.69314718055994529:19.793960303772252] [0.69314718055994529:23.576718577376507] [0.69314718055994529:17.776702950885692] [0:1] [0:7.6033993397406698] [3.7612001156935624:15.00798500886814] [0:19.81091474947214] [0:7.383989457978509] [0.69314718055994529:8.4022311729465553] [0:6.0258659738253142] [0.69314718055994529:7.5611215895302379] [0:17.96920699514914] [0:17.420890896235495] [0:7.3594676382556212] [0.69314718055994529:7.4271441334086159] [0:5.3230099791384085] [0.69314718055994529:7.134890851565884] [1.0986122886681098:23.393745097218961] [4.7004803657924166:25.597110300231382] [2.4849066497880004:18.490059846175956] [0:18.191141269761012] [0:1] -1:1:3:2 -1:7:3:2:11:5:8:0:9:1:10:4:6 -1:5:2:4:3:1:0 [-12.529625852193407:9.2466568987691566] [-10.687205638390527:3.8537319047079226] [-16.916903487129588:14.321418417622557]
tree_sizes=2421 2586 2590 2591 2550 2578 2569 2542 2596 2578 2596 2597 2573 2553 2573 2573 2581 2584 2631 2574 2587 2626 2563 2598 2555 2604 2583 2600 2605 2567 2590 2581 2611 2579 2620 2547 2601 2595 2579 2590 2585 2585 2636 2646 2588 2549 2617 2576 2593 2614 2577 2578 2611 2589 2605 2551 2551 2586 2597 2610 2560 2559 2607 2623 2585 2621 2569 2614 2656 2623 2649 2592 2642 2580 2611 2570 2588 2580 2589 2621 2584 2614 2587 2533 2592 2645 2606 2590 2596 2633 2625 2591 2606 2596 2583 2636 2613 2577 2605 2630 2569 2598 2654 2619 2598 2595 2595 2594 2581 2596 2600 2628 2575 2613 2654 2596 2587 2649 2593 2595 2587 2628 2619 2611 2605 2594 2656 2601 2613 2589 2594 2586 2596 2587 2632 2576 2627 2665 2563 2591 2627 2575 2582 2635 2642 2606 2600 2591 2599 2621 2669 2592 2614 2590 2624 2581 2576 2580 2575 2611 2625 2598 2582 2628 2635 2559 2631 2622 2637 2647 2571 2637 2610 2606 2587 2659 2582 2616 2587 2621 2634 2554 2597 2629 2567 2576 2619 2693 2586 2601 2646 2578 2632 2613 2565 2634 2655 2618 2604 2588 2619 2615 2631 2594 2615 2635 2583 2594 2590 2616 2605 2581 2653 2631 2621 2587 2598 2600 2634 2618 2621 2651 2579 2584 2656 2637 2623 2613 2571 2592 2588 2588 2624 2607 2617 2580 2584 2587 2636 2602 2621 2665 2584 2572 2620 2610 2599 2591 2585 2681 2645 2602 2663 2591 2607 2612 2637 2603 2636 2608 2610 2621 2663 2580 2640 2645 2668 2638 2587 2608 2648 2630 2632 2619 2649 2593 2640 2584 2614 2634 2642 2595 2629 2579 2598 2580 2608 2669 2647 2692 2598 2600 2594 2592 2589 2628 2609 2633 2626 2605 2614 2600 2652 2607 2624 2599 2615 2608 2600 2598 2619 2626 2604 2633 2605 2605 2608 2586 2610 2609 2600 2625 2616 2633 2614 2648 2620 2587 2649 2684 2611 2613 2617 2647 2578 2597 2655 2611 2628 2654 2618 2636 2593 2601 2664 2601 2637 2609 2595 2583 2619 2589 2669 2710 2587 2592 2646 2584 2618 2615 2621 2614 2632 2628 2618 2578 2578 2668 2622 2613 2599 2644 2583 2567 2561 2623 2593 2569 2626 2649 2678 2624 2639 2639 2644 2622 2652 2594 2643 2551 2602 2656 2622 2644 2636 2615 2608 2669 2609 2627 2609

Tree=0
num_leaves=28
num_cat=4
split_feature=5 36 19 36 36 2 10 23 23 19 10 28 36 15 28 15 5 10 5 10 15 19 5 29 32 32 2
split_gain=489.053 264.097 126.006 122.793 58.4667 60.0907 53.8459 50.5231 48.9196 39.5539 38.4313 33.4501 31.3564 30.8641 26.1768 25.0198 24.8163 32.4036 24.0561 25.6121 23.3777 23.0105 22.7025 22.4723 37.0675 21.9968 17.497
threshold=9.3497527592988288 0 16.81860097017822 1 2 67.500000000000014 13.670654427948609 1.4978661367769956 4.4248287033199567 14.436885117962907 13.670654427948609 1.0000000180025095e-35 3 10.425163640698626 2.3502401828962087 9.1343157547705953 10.912083702274044 12.222720769999478 5.8066387294484665 12.967969570195228 13.797260322672765 16.309326202369753 8.4952536517600041 3.7726948748059121 13.501415988091496 16.561237178739052 60.500000000000007
decision_type=10 1 2 1 1 8 8 10 10 2 8 10 1 10 10 10 10 8 10 8 10 2 10 8 10 10 10
left_child=3 8 7 6 -5 11 -1 -3 14 -9 -7 -6 26 -4 23 -14 17 -10 20 -20 -13 22 -8 -2 -25 -15 -11
right_child=1 2 13 4 5 10 21 9 16 12 -12 18 15 25 -16 -17 -18 -19 19 -21 -22 -23 -24 24 -26 -27 -28
leaf_value=2.3112750575996679 2.3502296795727879 2.2937536115250809 2.3184195233265723 2.2804417105779864 2.2850586602554888 2.3030594978138637 2.3207181983177447 2.3063266336817274 2.2877479706836592 2.2945660184169867 2.337983124608916 2.2952073907720378 2.3158201756911634 2.3373902439639913 2.3618737631764883 2.3296040552375361 2.3405083279545646 2.34118923192176 2.3001148172180703 2.3207158568027331 2.3225969802115749 2.3546927412355054 2.354264420636377 2.2892682577756114 2.3545265503394703 2.3563808970568814 2.3165228604825012
leaf_weight=169 207 76 67 120 110 50 81 172 21 44 74 279 170 292 185 468 236 22 106 124 33 46 25 15.999999999999998 17 72 157
leaf_count=169 207 76 67 120 110 50 81 172 21 44 74 279 170 292 185 468 236 22 106 124 33 46 25 16 17 72 157
internal_value=2.32225 2.33084 2.32353 2.30657 2.30085 2.30449 2.3232 2.31795 2.34626 2.31977 2.3239 2.30053 2.32253 2.33761 2.35318 2.32587 2.33659 2.31509 2.30367 2.31122 2.2981 2.33652 2.32863 2.34647 2.32289 2.34115 2.31222
internal_weight=3439 2222 1518 1217 896 776 321 1087 704 1011 124 652 839 431 425 638 279 43 542 230 312 152 106 240 33 364 201
internal_count=3439 2222 1518 1217 896 776 321 1087 704 1011 124 652 839 431 425 638 279 43 542 230 312 152 106 240 33 364 201
cat_boundaries=0 1 2 3 4
cat_threshold=2307 3075 528 544
is_linear=0
shrinkage=1


Tree=1
num_leaves=28
num_cat=0
split_feature=4 14 26 5 13 26 5 4 15 21 14 26 4 26 4 14 15 32 21 14 5 5 3 13 4 4 26
split_gain=918.931 257.55 63.2627 54.4628 57.6133 56.3781 42.7564 30.728 32.1274 25.2674 34.3577 23.1662 22.5954 21.9738 34.3726 33.6879 21.5059 21.3136 29.8306 41.2989 23.9283 21.9 20.8766 22.8669 20.7289 20.7037 20.2745
threshold=10.780121090928551 16.164835336765179 3.5114340430413216 10.004124429102015 14.71379251431132 3.2384861814448418 7.0833653256100222 9.0336611471807249 13.578121348964624 4.2555875595453383 18.960357281786496 3.8606743063089755 15.369617137786092 5.3913496380844323 12.807799066664723 19.983256570988129 8.6108517206523967 16.561237178739052 5.6076369307404796 20.467013318118429 14.535818557315441 13.877441618698155 15.110040950033239 16.106790264866095 12.04976963252672 14.491903128626477 4.7578820629520608
decision_type=10 10 10 10 2 10 10 10 10 8 10 10 10 8 10 10 10 10 10 10 10 10 2 2 10 10 10
left_child=6 2 22 4 11 25 7 8 -1 10 -8 -3 16 15 -15 24 -4 18 19 20 -7 -21 -2 -24 -6 -5 -10
right_child=1 3 12 5 13 17 9 -9 26 -11 -12 -13 -14 14 -16 -17 -18 -19 -20 21 -22 -23 23 -25 -26 -27 -28
leaf_value=-0.05511315371493633 -0.031227680437091176 0.013175041474822968 -0.0024848456876505397 0.0046647933356864903 -0.016746476104104284 0.018859893503994783 -0.029375304272244659 -0.028731231216369609 -0.01265334129279789 -0.033568132226357073 0.0092789369839448091 0.041720868082807561 -0.015968502579044419 -0.055709060924810615 -0.0002368117287518347 0.017230129450491963 0.011079227320180256 0.032282645721362004 0.012187399350507886 0.037988143507768628 -0.0087430956077668587 0.0059356831358896691 -0.009464320377653929 -0.035262960694917238 0.0021723483971782089 -0.023063318059909063 -0.055078851881110155
leaf_weight=181 62 72 242 102 84 421 51 100 32 150 38 43 63 17 28 95 204 99 553 165 32 23 338 36 158 34 15.999999999999998
leaf_count=181 62 72 242 102 84 421 51 100 32 150 38 43 63 17 28 95 204 99 553 165 32 23 338 36 158 34 16
internal_value=-3.74149e-06 0.00707164 -0.00608646 0.0135277 0.00475313 0.0165795 -0.0357668 -0.0429628 -0.0491775 -0.0258609 -0.0128712 0.0238487 0.00128254 -0.000995538 -0.021193 0.00170145 0.00371935 0.0185618 0.0174241 0.021942 0.01691 0.0340668 -0.0146893 -0.0119476 -0.00439452 -0.00226723 -0.0267952
internal_weight=3439 2871 945 1926 497 1429 568 329 229 239 89 115 509 382 45 337 446 1293 1194 641 453 188 436 374 242 136 48
internal_count=3439 2871 945 1926 497 1429 568 329 229 239 89 115 509 382 45 337 446 1293 1194 641 453 188 436 374 242 136 48
is_linear=0
shrinkage=0.0307728


Tree=2
num_leaves=28
num_cat=0
split_feature=4 14 38 38 27 40 27 14 40 14 38 27 38 12 16 14 25 25 29 32 12 29 12 27 29 25 25
split_gain=863.245 241.943 72.2872 80.3502 62.1807 51.9245 39.114 34.9673 34.0533 32.0793 30.977 30.8708 28.8153 27.9438 27.3015 26.8387 26.58 23.1753 23.0969 21.9211 23.4577 20.8789 19.9059 19.1934 25.7405 30.098 18.8979
threshold=10.780121090928551 16.164835336765179 0.98354783683235791 -2.5830134152942903 3.9219243190762363 3.4403154238725695 5.4531797844617023 19.983256570988129 6.1121931521689312 19.983256570988129 -5.7213283767195495 3.1132683346437333 -3.5035366510958483 7.3585119195829884 1.0000000180025095e-35 19.733874317087679 8.5161919696399728 13.361780693525121 3.7726948748059121 12.897178768800561 10.979445066931303 4.9380581778699986 11.50595079054399 4.9308638091439496 3.4175922930736511 11.445363693258127 11.884295616653743
decision_type=10 10 10 8 10 10 8 10 8 10 10 10 10 8 2 10 10 8 8 8 10 8 10 10 10 8 8
left_child=5 4 3 6 17 10 7 11 9 23 -1 26 -13 -11 -9 -8 -6 18 -2 20 -7 -18 -15 24 25 -5 -3
right_child=1 2 -4 8 16 19 15 14 -10 13 -12 12 -14 22 -16 -17 21 -19 -20 -21 -22 -23 -24 -25 -26 -27 -28
leaf_value=-0.050204007211395445 -0.0061557620212790414 -0.045649005360178942 -0.016302185295820663 0.0064237530861605587 -0.026747920830107633 -0.0057013919749552625 0.017887651534733002 0.00051919846390456462 0.0039087735699579263 0.016507635353351337 -0.030496872954768252 -0.008302952289088528 0.013219690797255006 0.04389035917812615 0.025241097154837876 -0.026080633332351798 0.0083850415874722837 -0.02304131861144652 -0.028597282941954093 -0.032986001969287936 -0.035391307341067761 -0.018890445778978408 0.026726538865139031 0.025168397433035169 0.0067914565947299957 0.028437500446536763 -0.0015189094574058447
leaf_weight=201 382 20 76 93 25 84 17 61 135 166 121 97 150 95 138 58 318 142 49 126 36 29 196 168 279 160 17
leaf_count=201 382 20 76 93 25 84 17 61 135 166 121 97 150 95 138 58 318 142 49 126 36 29 196 168 279 160 17
internal_value=-3.62631e-06 0.00685402 0.0131114 0.0143198 -0.00589917 -0.0346661 0.00456115 0.00777165 0.0185344 0.0202409 -0.0427985 0.000840724 0.00476748 0.0265826 0.017663 -0.0161145 0.00389764 -0.0122594 -0.00870712 -0.0240213 -0.0146084 0.00610553 0.0323298 0.0161007 0.0132373 0.0203455 -0.025373
internal_weight=3439 2871 1926 1850 945 568 558 483 1292 1157 322 284 247 457 199 75 372 573 431 246 120 347 291 700 532 253 37
internal_count=3439 2871 1926 1850 945 568 558 483 1292 1157 322 284 247 457 199 75 372 573 431 246 120 347 291 700 532 253 37
is_linear=0
shrinkage=0.0307728


Tree=3
num_leaves=28
num_cat=0
split_feature=40 26 2 22 40 29 10 2 31 0 40 40 22 0 10 26 22 22 10 0 40 29 3 31 2 31 40
split_gain=315.666 248.599 41.9532 44.8197 46.2807 44.6398 41.9247 36.5344 31.2012 44.1295 29.7626 29.4232 27.6686 24.5108 24.3303 24.0464 23.9737 21.4685 21.4299 21.0059 18.5196 18.0941 17.4357 17.2089 17.1399 19.9978 17.0655
threshold=1.0000000180025095e-35 3.5114340430413216 68.500000000000014 2.1383330595080281 4.1245547609665598 2.6735537653587347 10.133843562854841 58.500000000000007 23.051190939756989 15.668410669077927 4.1245547609665598 -1.0000000180025095e-35 4.3943729409690677 13.896233915973172 11.881245789527084 2.524928003624769 2.3502401828962087 1.8688348091416842 8.8786170904102182 14.442441928042655 4.6050697353931183 2.8029010331479989 17.413437691741205 22.188904563322307 52.500000000000007 20.233974673736181 3.4403154238725695
decision_type=10 10 10 8 10 10 10 10 10 10 10 8 8 8 10 10 8 8 8 10 10 10 2 10 10 10 10
left_child=11 7 3 4 6 -6 -3 15 9 -4 14 17 20 -13 -9 -2 -12 -1 -5 -15 23 -18 -23 -11 -7 -26 -8
right_child=1 2 8 18 5 24 26 10 -10 12 16 13 -14 19 -16 -17 21 -19 -20 -21 -22 22 -24 -25 25 -27 -28
leaf_value=-0.0053375818059345432 -0.026915927574244328 0.013104762682932257 0.016310505335224428 -0.031878641582374218 -0.0046395131523415175 -0.0028460432515930731 -0.025726186291596856 -0.0094992266221945714 0.02505898738723639 -0.036224667149741083 0.003818232281840154 -0.044635148745712068 -0.036026207894996304 0.0061550901524087716 -0.038115373792743143 -0.011432143121391864 -0.031870882942468329 -0.031091872905192729 0.0011880667674768004 -0.04093040281047846 0.0078423250038210587 0.0091670612567906849 -0.028819443640548351 0.0058871789865724174 0.029913605047436165 0.015050408800767506 -0.0014806896828082569
leaf_weight=58 166 109 403 19 76 26 56 101 186 20 269 136 20 19 39 222 35 65 801 17 128 35 17 17 186 159 54
leaf_count=58 166 109 403 19 76 26 56 101 186 20 269 136 20 19 39 222 35 65 801 17 128 35 17 17 186 159 54
internal_value=-3.51476e-06 0.00285233 0.00826419 0.00523828 0.0111684 0.0168464 -0.000421025 -0.0109834 0.0140736 0.0105987 -0.00545037 -0.03044 -0.00184388 -0.0386584 -0.0174709 -0.0180566 -0.000723202 -0.0189476 0.000421887 -0.0160797 0.00229943 -0.0147651 -0.0032516 -0.016876 0.0212478 0.0230636 -0.0138239
internal_weight=3439 3144 2260 1486 666 447 219 884 774 588 496 295 185 172 140 388 356 123 820 36 165 87 52 37 371 345 110
internal_count=3439 3144 2260 1486 666 447 219 884 774 588 496 295 185 172 140 388 356 123 820 36 165 87 52 37 371 345 110
is_linear=0
shrinkage=0.0307728


Tree=4
num_leaves=28
num_cat=4
split_feature=4 18 35 20 25 4 30 20 22 4 2 33 30 22 25 35 35 10 25 22 22 35 33 22 18 25 30
split_gain=789.934 106.148 47.1017 42.3078 41.96 38.9826 31.7787 30.4971 29.9881 30.6767 30.562 40.5833 29.7287 24.952 25.2886 23.6897 22.2209 21.9161 21.4902 19.7632 19.2135 18.8596 20.392 18.6792 18.103 16.723 19.9982
threshold=10.780121090928551 10.663074842956055 0 3.5694334999727624 13.252763372191788 1.0000000180025095e-35 21.672690213088476 4.4829865921051741 3.3842466058243152 16.664365386597719 61.500000000000007 13.634883238066616 18.987886078931002 2.1383330595080281 9.5749460565011564 1 2 14.462474766986464 15.236567589864732 2.4414009612931857 4.3943729409690677 3 16.440140332226665 3.6762205501217919 11.106932679141215 11.681000165942368 15.111440232631702
decision_type=10 2 9 10 10 10 8 10 8 10 10 10 8 8 10 9 9 8 10 8 8 9 10 10 2 10 10
left_child=2 13 5 4 16 -1 8 12 9 10 11 25 -7 14 -2 -12 -3 -16 20 -4 -10 -8 23 -23 -17 26 -5
right_child=1 3 19 6 -6 7 21 -9 18 -11 15 -13 -14 -15 17 24 -18 -19 -20 -21 -22 22 -24 -25 -26 -27 -28
leaf_value=-0.039270928469409334 -0.014955259907843872 0.014213345980929945 -0.035691773343457273 -0.011872139541253957 -0.015579349765877663 -0.018244861015531338 0.040556037351454563 -0.049089701733426666 0.00097849013181183666 -0.021192174647004795 0.024188141169715256 -0.012359247432746958 0.012750283831221287 -0.02432277671746496 -0.007691164683149539 -0.0092565735442654909 0.00019086846922995387 0.01798984721830385 0.016030415233057472 -0.0520442705032872 -0.027122535833909799 0.026063254123888737 0.038888727734400004 -0.016884677895898283 0.014143980311395576 0.0061773700668016048 0.022614317101879527
leaf_weight=88 121 171 223 18 112 92 51 20 294 26 245 88 43 84 65 33 286 61 87 102 25 17 22 22 610 295 138
leaf_count=88 121 171 223 18 112 92 51 20 294 26 245 88 43 84 65 33 286 61 87 102 25 17 22 22 610 295 138
internal_value=-3.40658e-06 0.00655659 -0.0331614 0.0086926 0.00130085 -0.0229132 0.0108265 -0.0136262 0.0098674 0.0119334 0.012537 0.00675656 -0.00837233 -0.00983458 -0.00490741 0.0160456 0.00543779 0.00474171 0.00247354 -0.0408239 -0.00122378 0.0267457 0.0151994 0.00183622 0.012943 0.0104865 0.0186351
internal_weight=3439 2871 568 2540 569 243 1971 155 1859 1453 1427 539 135 331 247 888 457 126 406 325 319 112 61 39 643 451 156
internal_count=3439 2871 568 2540 569 243 1971 155 1859 1453 1427 539 135 331 247 888 457 126 406 325 319 112 61 39 643 451 156
cat_boundaries=0 1 2 3 4
cat_threshold=8 8 8 2
is_linear=0
shrinkage=0.0307728


Tree=5
num_leaves=28
num_cat=3
split_feature=38 36 18 18 36 36 38 38 38 40 25 38 20 38 0 18 21 40 38 20 0 38 0 38 38 0 32
split_gain=667.181 348.155 155.79 64.891 58.8028 48.4242 35.1558 33.0171 30.471 29.351 28.4047 24.0122 41.7831 22.8977 21.8216 20.5722 24.2294 19.6883 19.7722 19.142 17.6464 17.2876 16.8759 16.0766 15.5394 15.4751 18.3447
threshold=-4.7522081040924382 0 12.646313425002914 10.663074842956055 1 2 -2.9797466621657054 -2.9797466621657054 -2.5830134152942903 3.4403154238725695 15.236567589864732 -2.5830134152942903 4.886575525404063 -0.24017836749291452 12.371853767839287 12.243582754290498 5.3636340903656388 6.1121931521689312 -2.5830134152942903 4.2972622671762819 14.000141513437525 -5.7213283767195495 12.030958836687267 0.26281282443662862 -3.2505662797920798 13.445313890437061 13.826016921954229
decision_type=10 1 2 2 1 1 10 10 10 10 10 10 10 10 10 2 10 8 10 10 10 10 10 10 10 10 10
left_child=9 4 3 -3 8 6 14 -7 25 21 17 12 -6 -9 -5 -11 -17 18 20 -16 -4 -1 -13 -8 -22 -2 -27
right_child=1 2 10 5 11 7 23 13 -10 15 -12 22 -14 -15 19 16 -18 -19 -20 -21 24 -23 -24 -25 -26 26 -28
leaf_value=-0.045025553134966 0.041688342200339942 -0.020537532673912076 0.016542021625261652 -0.025755941673506148 0.014969714790758551 -0.027913453426725257 0.0098140914054096386 -0.0033885635471671209 0.046614757661517188 -0.030135995288429127 0.028443320647313565 -0.0064564920288081211 -0.014363208545812025 -0.017087567851948027 0.0067757340729295941 0.016311425975490998 -0.031128287712449416 -0.019205106454389081 0.016584056915699242 -0.022308890949781029 0.0046127600787065045 -0.026823156918314012 0.021048036704396013 -0.0077817012358363663 -0.026488305276598151 -0.016202040601702782 0.02900565772562155
leaf_weight=206 18 272 38 53 222 82 358 430 126 158 98 22 58 158 75 22 19 21 225 30 32 65 531 57 29 17 17
leaf_count=206 18 272 38 53 222 82 358 430 126 158 98 22 58 158 75 22 19 21 225 30 32 65 531 57 29 17 17
internal_value=-3.30177e-06 0.00538952 -0.00221783 -0.00692297 0.0199473 -0.00394375 0.00264792 -0.00947915 0.036391 -0.0340699 0.013823 0.0160435 0.00889361 -0.00706959 -0.00965919 -0.0250958 -0.00567283 0.00967 0.0115415 -0.00153416 8.12555e-05 -0.0406597 0.0199538 0.00739732 -0.010173 0.0186164 0.00640181
internal_weight=3439 2969 1958 1515 1011 1243 573 670 178 470 443 833 280 588 158 199 41 345 324 105 99 271 553 415 61 52 34
internal_count=3439 2969 1958 1515 1011 1243 573 670 178 470 443 833 280 588 158 199 41 345 324 105 99 271 553 415 61 52 34
cat_boundaries=0 1 2 3
cat_threshold=3331 2 132
is_linear=0
shrinkage=0.0307728


Tree=6
num_leaves=28
num_cat=0
split_feature=4 6 26 6 23 26 4 23 30 20 34 8 4 30 12 8 23 34 26 6 20 4 23 20 30 24 8
split_gain=701.746 164.253 141.224 68.4279 42.3681 39.3758 48.5564 43.6597 31.477 29.1762 28.8854 25.6434 23.6756 22.4812 21.6938 21.3983 20.8847 20.8792 20.8491 18.9555 18.7136 18.4025 18.3287 21.2151 17.6192 15.8205 15.0393
threshold=10.780121090928551 7.5383917497101374 3.2384861814448418 16.440152966917214 5.1387309967764621 4.135134555718313 13.502120154130312 3.7726948748059121 18.987886078931002 4.5798392285869785 inf 13.342302114675727 15.696604946018757 19.746710724222641 7.3585119195829884 14.637488634756572 4.2121001622835372 1.0000000180025095e-35 2.524928003624769 15.394436325686952 3.1567740231385479 12.451734003224781 2.602003343538398 3.5694334999727624 14.546590452486276 13.31298529827002 15.374702488574906
decision_type=10 10 10 8 8 10 10 8 10 10 8 8 10 10 10 10 10 10 10 10 10 10 8 10 8 8 8
left_child=3 4 14 -1 10 6 22 15 16 11 13 -10 -8 20 24 -7 -5 -6 -16 -9 -2 -15 -4 -24 -3 -20 -22
right_child=1 2 5 8 17 7 12 19 9 -11 -12 -13 -14 21 18 -17 -18 -19 25 -21 26 -23 23 -25 -26 -27 -28
leaf_value=-0.011148178334703749 -0.018760746776090478 0.0076291929351870215 0.030007986021664424 -0.036668756658121075 -0.041822014704473116 0.032144344519832703 0.0010526655500133289 0.012196162762992797 0.00023212849591820183 -0.05108553001704963 -0.028564313720125138 -0.041651217955440779 -0.026654030019717972 0.034138585955820151 -0.008530035208807487 0.0057938597128751566 -0.053745743099449343 -0.0096779664841977319 0.013999274933028041 0.024655044453897833 -0.00012358638178059942 -0.00071580453906894704 -5.1095724970783165e-05 0.018264995448165875 -0.020897030366030411 -0.0080770306056498261 -0.029195039152799807
leaf_weight=125 81 25 64 258 50 206 254 886 51 23 46 19 33 26 169 34 92 31 102 133 264 32 94 165 114 44 18
leaf_count=125 81 25 64 258 50 206 254 886 51 23 46 19 33 26 169 34 92 31 102 133 264 32 94 165 114 44 18
internal_value=-3.20019e-06 0.00617979 0.00975476 -0.0312556 -0.0089747 0.0134943 0.00707742 0.0166034 -0.0369292 -0.0210161 -0.00541118 -0.0111362 -0.00213312 -0.00288138 -0.00564002 0.0284114 -0.0411576 -0.02952 -0.00117155 0.0138223 -0.00572385 0.0149086 0.0152614 0.0116175 -0.0157664 0.00734614 -0.00197921
internal_weight=3439 2871 2323 568 548 1869 610 1259 443 93 467 70 287 421 454 240 350 81 315 1019 363 58 323 259 139 146 282
internal_count=3439 2871 2323 568 548 1869 610 1259 443 93 467 70 287 421 454 240 350 81 315 1019 363 58 323 259 139 146 282
is_linear=0
shrinkage=0.0307728


Tree=7
num_leaves=28
num_cat=5
split_feature=4 36 27 36 24 35 38 27 5 30 5 36 24 36 4 27 4 30 30 40 10 4 10 26 5 26 5
split_gain=659.222 308.146 140.255 57.9728 44.6455 43.5315 51.4572 37.7181 33.0158 38.4736 32.2223 31.3871 32.943 30.4367 29.4425 28.0714 31.0612 22.849 19.9125 19.1722 18.8245 18.2073 28.432 23.4855 17.2159 16.9162 15.6813
threshold=10.780121090928551 0 3.9219243190762363 1 10.631168866418408 2 -5.7213283767195495 5.8245230014317348 9.6747643118996827 19.964181049581253 7.0833653256100222 3 8.8468224058174112 4 12.04976963252672 5.6276146440043524 15.117162219577599 18.024553783086237 18.802077331233324 3.6300825050489327 11.778181241567438 12.807799066664723 10.733719095376324 4.2268071048866842 11.960887540086237 3.6242520361853052 13.09515434225503
decision_type=10 1 10 1 10 9 10 10 10 10 10 1 10 1 10 10 10 10 10 10 10 10 10 10 10 10 8
left_child=5 3 11 21 -4 6 20 13 9 -5 -7 -3 -13 -6 -15 -10 -17 -14 -8 -12 -1 22 -2 -24 -16 -22 -23
right_child=1 2 4 8 7 10 18 -9 15 -11 19 12 17 14 24 16 -18 -19 -20 -21 25 26 23 -25 -26 -27 -28
leaf_value=-0.039454199705560702 0.048319404327984969 -0.020445466435601981 -0.027265386214992332 0.01177576465545252 0.010533986858876423 -0.045673476933255019 -0.010658879302884977 0.024260825600464685 0.02271835348391869 -0.022494268745296704 -0.036487137218211244 -0.029090146210417854 -0.009628192503936912 -0.035328579760255344 -0.0071040099322534295 -0.016069008293355579 0.022525659274236842 0.0035276601244583561 0.022140222635544608 -0.012898549159221812 -0.035476846305482604 0.057501532582841589 0.033195005303971313 -0.015856759407670985 0.0056389344021494647 -0.0018188244636077005 0.03362923426620272
leaf_weight=97 30 231 37 192 469 193 65 109 502 37 73 57 318 22 155 40 39 206 24 59 26 57 18 19 285 31 48
leaf_count=97 30 231 37 192 469 193 65 109 502 37 73 57 318 22 155 40 39 206 24 59 26 57 18 19 285 31 48
internal_value=-3.10168e-06 0.00598962 -0.00132197 0.0198655 0.00595184 -0.0302938 -0.0204416 0.00713361 0.0159378 0.00623869 -0.0376602 -0.0109859 -0.00675669 0.00512838 -0.000574691 0.020035 0.00298406 -0.00445624 -0.00181418 -0.0259438 -0.0312067 0.0364704 0.0260569 0.00800626 0.00114994 -0.0171716 0.0465885
internal_weight=3439 2871 1889 982 1077 568 243 1040 810 229 325 812 581 931 462 581 79 524 89 132 154 172 67 37 440 57 105
internal_count=3439 2871 1889 982 1077 568 243 1040 810 229 325 812 581 931 462 581 79 524 89 132 154 172 67 37 440 57 105
cat_boundaries=0 1 2 3 4 5
cat_threshold=3331 2 8 544 132
is_linear=0
shrinkage=0.0307728


Tree=8
num_leaves=28
num_cat=0
split_feature=7 4 27 16 31 27 7 4 22 4 22 27 16 8 16 1 9 4 11 4 4 31 1 22 26 8 22
split_gain=630.517 152.914 141.68 47.5857 41.5221 37.1887 40.3984 40.1177 30.0926 29.8351 29.6615 29.3118 26.4319 23.5542 22.3317 21.115 19.1718 18.963 18.1405 24.8708 17.1859 17.3217 17.1161 17.0414 16.9683 23.7704 19.5968
threshold=inf 10.780121090928551 3.7256208424938388 1.0000000180025095e-35 20.233974673736181 4.3630783395783075 16.937865823137312 15.117162219577599 3.6762205501217919 13.006644493508931 3.3842466058243152 2.524928003624769 1.0000000180025095e-35 10.511919789664356 1.0000000180025095e-35 14.329273862216802 20.968059896005951 11.154794078599764 13.761490652503539 12.451734003224781 1.0000000180025095e-35 21.065323882154338 13.822286348180326 0.89587973461402759 3.8606743063089755 11.409228862877258 1.7005986908310777
decision_type=8 10 10 2 10 10 10 10 10 10 8 10 2 8 2 8 10 8 10 10 10 10 10 8 10 10 10
left_child=2 3 11 -2 13 7 8 17 14 -10 24 15 23 -4 18 -1 -11 -6 -7 -20 -5 -22 -15 -13 26 -26 -3
right_child=1 10 4 20 5 6 -8 -9 9 16 -12 12 -14 22 -16 -17 -18 -19 19 -21 21 -23 -24 -25 25 -27 -28
leaf_value=-0.020845775130890358 -0.044229543225257531 -0.0046081907357953655 0.0010610285718083675 -0.034281253407318656 -0.022998613906017769 0.017907642667551835 0.022464154767779784 -0.022414592061107158 -0.02696849025036047 0.022748121672314159 -0.03195749113539597 0.010077398738439212 0.012224497065730944 -0.002142856825456927 0.024225358487296799 -0.003340001371127888 -0.0030758653439192309 0.0081552784667321236 -0.034230290214408009 0.0058909822205051622 -0.010827226688883767 -0.041652547915587472 0.023525524550659996 -0.0065805863211264989 -0.017902607041114717 0.0049111816578358272 -0.023361194633975017
leaf_weight=120 236 113 56 88 20 117 286 58 37 38 51 73 149 26 117 143 96 247 15.999999999999998 171 97 21 457 286 59 162 99
leaf_count=120 236 113 56 88 20 117 286 58 37 38 51 73 149 26 117 143 96 247 16 171 97 21 457 286 59 162 99
internal_value=-3.89318e-06 -0.0217104 0.0079946 -0.0347961 0.0128556 0.0096755 0.0129673 0.00078257 0.0083793 -0.00250695 -0.00976024 -0.00298841 0.00132884 0.0199534 0.012801 -0.0113274 0.00424735 0.00582165 0.00840417 0.00245815 -0.0239888 -0.0163131 0.0221438 -0.00319331 -0.00714579 -0.00117938 -0.0133655
internal_weight=3439 926 2513 442 1742 1203 878 325 592 171 484 771 508 539 421 263 134 267 304 187 206 118 483 359 433 221 212
internal_count=3439 926 2513 442 1742 1203 878 325 592 171 484 771 508 539 421 263 134 267 304 187 206 118 483 359 433 221 212
is_linear=0
shrinkage=0.0307728


Tree=9
num_leaves=28
num_cat=5
split_feature=4 36 27 36 27 18 36 30 21 4 27 4 30 4 36 0 0 36 19 21 4 1 25 21 27 19 19
split_gain=584.304 283.428 124.351 53.6957 40.0355 35.1469 34.9268 31.4351 38.222 30.6502 28.7585 36.2172 28.0378 27.9448 27.9224 25.398 22.2106 21.4667 18.7969 18.5828 38.2794 18.3716 15.9408 15.8765 15.8076 15.1681 14.5931
threshold=10.780121090928551 0 3.9219243190762363 1 5.8245230014317348 10.42321838809576 2 18.987886078931002 5.3636340903656388 9.0336611471807249 5.4531797844617023 15.117162219577599 20.766039220437609 12.04976963252672 3 11.57621430580487 12.627473310172052 4 15.208224874832544 4.5379471377116305 12.807799066664723 14.647460523574919 9.5749460565011564 4.9015572891946713 4.3630783395783075 15.703059522516289 14.150348286400762
decision_type=10 1 10 1 10 2 1 10 8 10 10 10 10 10 1 10 10 1 2 10 10 10 10 10 10 2 2
left_child=7 3 5 19 6 18 -4 9 16 -1 17 12 -12 -8 -7 -16 -9 26 -3 -2 24 23 -15 -11 -21 -24 -5
right_child=1 2 4 10 -6 14 13 8 -10 21 11 -13 -14 22 15 -17 -18 -19 -20 20 -22 -23 25 -25 -26 -27 -28
leaf_value=-0.038842708291028115 0.051497424921462559 -0.028667828630586097 0.0093033598558431279 -0.00026339721009594207 0.023156291168765868 -0.017569487708177685 -0.035473983709686685 -0.037591753120536489 -0.044729535885104754 -0.0056752277744230618 0.00042387558799648076 0.022518025336295284 -0.041393627595349251 -0.022054140972422084 -0.028772334504983899 -0.0011694379735216454 0.002345362019499724 0.00951202283405061 -0.0042876350979391478 0.021798538581190449 0.041770263539125552 -0.03249283234863401 -0.0092243832073132057 -0.036182722203577468 -0.019238508708755968 0.0040667704257483957 0.023962312837434253
leaf_weight=269 56 129 477 25 109 169 23 15.999999999999998 30 70 49 46 22 31 34 441 75 263 39 20 80 87 108 21 15.999999999999998 329 405
leaf_count=269 56 129 477 25 109 169 23 16 30 70 49 46 22 31 34 441 75 263 39 20 80 87 108 21 16 329 405
internal_value=-3.77338e-06 0.00563816 -0.00137302 0.0189461 0.00547533 -0.0104733 0.00348439 -0.0285213 -0.014607 -0.0322878 0.0151718 0.00124734 -0.0125337 -0.00231107 -0.00720329 -0.00308037 -0.00467655 0.0177416 -0.0230081 0.0349101 0.0299119 -0.0223819 -0.00073065 -0.0127154 0.00355985 0.000782 0.0220413
internal_weight=3439 2871 1889 982 1077 812 968 568 121 447 810 117 71 491 644 475 91 693 168 172 116 178 468 91 36 437 430
internal_count=3439 2871 1889 982 1077 812 968 568 121 447 810 117 71 491 644 475 91 693 168 172 116 178 468 91 36 437 430
cat_boundaries=0 1 2 3 4 5
cat_threshold=3331 2 132 544 2049
is_linear=0
shrinkage=0.0307728


Tree=10
num_leaves=28
num_cat=2
split_feature=6 37 28 28 39 30 1 12 6 39 12 6 6 35 1 30 1 12 21 16 33 33 13 30 13 13 1
split_gain=568.415 183.703 50.736 41.8415 38.7877 49.0408 29.6347 31.274 27.24 28.9056 25.014 24.2055 23.4585 23.2226 19.9659 24.1519 22.8025 18.1409 16.8665 17.6855 16.0109 15.5518 17.278 14.6989 22.7517 22.2376 14.4654
threshold=1.0000000180025095e-35 0 2.8617925509761908 0.89587973461402759 -2.0211707897525453 20.766039220437609 14.055932357650553 10.424941375155505 11.589432592183313 0.55063255079660689 8.0511812659846616 11.367332891173017 12.053215188276107 1 14.647460523574919 19.746710724222641 15.200257847304583 8.5418774089331588 4.5379471377116305 1.0000000180025095e-35 11.835849184050225 12.590469002538862 14.539733330663866 18.440980936984889 15.790405375547303 15.50360916030631 15.588002084906512
decision_type=10 9 10 10 10 8 8 8 10 10 10 10 10 9 8 8 10 10 8 2 10 10 2 10 2 2 10
left_child=3 4 6 13 5 11 -3 -8 18 10 -10 -2 -4 -1 23 17 -17 20 19 -6 -16 -9 -23 25 -25 -5 -11
right_child=1 2 12 14 8 -7 7 21 9 26 -12 -13 -14 -15 15 16 -18 -19 -20 -21 -22 22 -24 24 -26 -27 -28
leaf_value=-0.040904833398820888 0.017976401323804864 -0.019746454707203827 -0.014485253051163736 -0.021161317964234816 -0.00069689046366500031 -0.0069664232498456557 -0.0086858999454665058 0.013332286459145323 0.0076775439388492763 -0.010533643610772209 0.020440528006124337 0.032774169492768734 0.017696896570552248 -0.021518086206167915 -0.047752867207647168 0.014186154356580384 -0.017746206115502199 -0.018576981674055706 -0.0025813025556434442 0.037464699744275402 -0.025990741592588025 -0.022870943054686486 0.0022483172785640461 0.0083138607937154191 -0.029023685598306048 0.0021519186710543753 0.021565283036714556
leaf_weight=125 204 112 25 152 23 49 416 109 216 61 445 215 151 110 50 30 72 158 173 23 89 29 245 68 20 52 17
leaf_count=125 204 112 25 152 23 49 416 109 216 61 445 215 151 110 50 30 72 158 173 23 89 29 245 68 20 52 17
internal_value=-3.54576e-06 0.00759084 -0.0019818 -0.0206134 0.0147979 0.022163 -0.00492221 -0.00284422 0.0113544 0.0141792 0.0162699 0.0255695 0.0131256 -0.0318302 -0.0167987 -0.0212735 -0.00835434 -0.0257104 0.00182235 0.0183839 -0.0338188 0.00350078 -0.000410291 -0.0106841 -0.000171945 -0.0152187 -0.00353772
internal_weight=3439 2513 1087 926 1426 468 911 799 958 739 661 419 176 235 691 399 102 297 219 46 139 383 274 292 88 204 78
internal_count=3439 2513 1087 926 1426 468 911 799 958 739 661 419 176 235 691 399 102 297 219 46 139 383 274 292 88 204 78
cat_boundaries=0 1 2
cat_threshold=40 2
is_linear=0
shrinkage=0.0307728


Tree=11
num_leaves=28
num_cat=1
split_feature=38 14 38 38 27 30 35 27 14 12 14 23 23 13 23 14 38 1 29 23 5 27 29 23 5 27 14
split_gain=480.99 181.503 61.9161 72.0054 43.8736 34.4066 34.0984 26.5038 35.0367 23.8912 26.5368 25.8529 23.1367 27.0324 21.7481 21.6611 23.293 20.0009 19.4369 18.838 18.1013 20.409 19.9526 17.4202 17.2842 16.646 16.1509
threshold=-4.7522081040924382 16.164835336765179 -2.5830134152942903 0.98354783683235791 3.9219243190762363 18.987886078931002 0 5.4531797844617023 19.427533066946761 7.3585119195829884 19.983256570988129 3.1984648276080736 5.0005792898547883 16.106790264866095 3.4811217321331038 21.635232718113105 -3.8283171000057954 14.720783199739929 3.7726948748059121 2.8029010331479989 12.88543904420442 4.8242976514536702 3.3140206880897671 3.3497501700808394 12.88543904420442 5.8245230014317348 21.281398468649222
decision_type=10 10 10 10 10 10 9 10 10 8 10 10 8 2 10 10 8 10 8 10 8 10 10 10 8 10 10
left_child=5 4 6 9 12 -1 7 8 14 25 20 -12 13 18 -3 16 -8 -18 -2 -6 21 22 -11 -7 -19 -4 -10
right_child=1 2 3 -5 19 23 15 -9 26 10 11 -13 -14 -15 -16 -17 17 24 -20 -21 -22 -23 -24 -25 -26 -27 -28
leaf_value=-0.033858328924383382 -0.004129638171243977 -0.021879118716641784 0.0074640500411455608 -0.015522478385098301 -0.014336715428596072 0.0069453992258941017 -0.017870035148819925 -0.01738793210442274 0.015781692644968735 0.022963162647449631 0.042676550330968149 0.020918621498656746 -0.026031001502282748 -0.030356478683355354 0.007291051861474448 -0.036765347595862946 -0.017830857653801456 0.012377186147092521 -0.022227215034066664 0.0050146114793565419 0.0072661961424469483 0.034050806625593601 0.0053571518351092457 -0.021065671979576643 -0.013032359426768879 0.02629938169446136 0.039034807913994329
leaf_weight=348 415 34 399 76 56 27 77 33 132 131 65 253 86 50 84 20 38 122 65 319 216 66 114 95 32 50 36
leaf_count=348 415 34 399 76 56 27 77 33 132 131 65 253 86 50 84 20 38 122 65 319 216 66 114 95 32 50 36
internal_value=-3.43659e-06 0.00457548 0.00996099 0.013588 -0.00617382 -0.0289285 0.00178833 0.00872474 0.0117377 0.0152977 0.0183457 0.025366 -0.0112257 -0.00882338 -0.00111391 -0.00586814 -0.00357094 0.00216359 -0.00658035 0.00212481 0.0141096 0.0188625 0.014771 -0.0148665 0.00709728 0.00956153 0.0207645
internal_weight=3439 2969 1978 1370 991 470 608 319 286 1294 845 318 616 530 118 289 269 192 480 375 527 311 245 122 154 449 168
internal_count=3439 2969 1978 1370 991 470 608 319 286 1294 845 318 616 530 118 289 269 192 480 375 527 311 245 122 154 449 168
cat_boundaries=0 1
cat_threshold=8
is_linear=0
shrinkage=0.0307728


Tree=12
num_leaves=28
num_cat=1
split_feature=7 37 26 28 22 34 27 22 34 12 31 28 7 22 26 25 26 13 12 7 33 34 33 25 25 28 22
split_gain=515.314 168.074 61.4145 37.7011 40.4199 29.2809 29.2706 39.9527 23.7632 23.1553 22.1003 17.6176 16.896 30.7926 20.9058 19.9885 16.7962 18.4457 15.4185 15.2426 14.4831 13.2148 13.1507 22.0534 12.6463 20.5704 13.7246
threshold=inf 0 4.4005842009683471 0.89587973461402759 2.740319461670996 inf 3.3140206880897671 2.1383330595080281 inf 9.4793718445287869 20.401761909400303 1.8688348091416842 16.937865823137312 3.6762205501217919 4.2268071048866842 12.262367907297827 1.0000000180025095e-35 14.956081960793343 8.0511812659846616 13.465031886348443 13.634883238066616 inf 13.634883238066616 8.5161919696399728 15.236567589864732 3.0201273556387074 3.0201273556387074
decision_type=8 9 10 10 10 8 10 8 8 10 8 10 10 10 10 8 10 2 10 10 10 8 10 10 10 10 10
left_child=1 6 9 -2 5 16 10 11 12 22 18 -8 13 15 -14 -9 -5 -18 -1 -13 -19 -11 23 -3 26 -26 -4
right_child=3 2 24 4 -6 -7 7 8 -10 21 -12 19 14 -15 -16 -17 17 20 -20 -21 -22 -23 -24 -25 25 -27 -28
leaf_value=-0.0011022406953518197 -0.030274264348659308 -0.026313132532514032 0.01171965312266119 0.011945144058802171 -0.030385438446035865 -0.032062173730306308 0.015304740193684014 -0.0029763981133914597 -0.008968297946287342 -0.00062108379836132294 -0.0088608839071529708 0.018049541399156061 -0.01107472393083554 -0.0030487715691171137 0.02608398324992164 0.016809291843864167 -0.020548432703082181 -0.0036720670706034053 0.02168370608765979 0.033082652370542698 -0.020078071997639845 -0.026912074929783092 -0.020593382266568323 -0.0028659308806704285 1.7467904711968286e-05 0.031492524920484426 -0.0026737462078810516
leaf_weight=49 235 49 146 32 146 62 165 55 49 384 83 97 15.999999999999998 121 138 400 137 250 66 187 64 19 127 169 32 51 110
leaf_count=49 235 49 146 32 146 62 165 55 49 384 83 97 16 121 138 400 137 250 66 187 64 19 127 169 32 51 110
internal_value=-3.33086e-06 0.00722763 -0.0019282 -0.0196269 -0.0160058 -0.0121537 0.0141214 0.0159907 0.0117767 -0.00687015 0.00324071 0.0233019 0.0131692 0.0107485 0.0222233 0.0144176 -0.00959815 -0.0111267 0.0119749 0.0279481 -0.00701597 -0.00186061 -0.0127219 -0.00813617 0.00891928 0.0193576 0.00553499
internal_weight=3439 2513 1087 926 691 545 1426 1228 779 748 198 449 730 576 154 455 483 451 115 284 314 403 345 218 339 83 256
internal_count=3439 2513 1087 926 691 545 1426 1228 779 748 198 449 730 576 154 455 483 451 115 284 314 403 345 218 339 83 256
cat_boundaries=0 1
cat_threshold=40
is_linear=0
shrinkage=0.0307728


Tree=13
num_leaves=28
num_cat=5
split_feature=7 36 38 36 13 36 5 32 33 5 38 37 38 5 20 38 32 7 7 20 10 38 35 10 5 13 13
split_gain=484.087 229.048 119.136 72.2097 54.0481 44.0788 39.4489 52.8517 32.7827 31.2334 28.1281 26.387 27.4729 24.3316 28.6963 24.3219 20.3265 20.0973 19.3125 19.0838 18.1963 16.3477 14.6417 17.1218 17.9373 15.5739 13.8345
threshold=inf 0 -5.7213283767195495 1 16.465215620519306 2 7.8989670937473049 16.084394759728976 15.14564638427677 11.30325885026587 1.0000000180025095e-35 3 0.26281282443662862 9.6747643118996827 5.7186373824810337 -3.8283171000057954 13.068485497236187 12.252117177283536 13.151924045984176 2.4414009612931857 8.8786170904102182 -4.7522081040924382 4 11.659847147543138 9.6747643118996827 15.790405375547303 15.404919519287681
decision_type=8 1 10 1 2 1 10 10 10 10 10 9 10 10 10 10 8 10 10 10 10 10 9 8 10 2 2
left_child=1 4 22 9 18 16 8 11 15 -3 -11 12 17 -6 -15 -5 26 -8 -1 -17 -7 -22 23 -2 25 -25 -4
right_child=2 3 5 6 13 20 7 -9 -10 10 -12 -13 -14 14 -16 19 -18 -19 -20 -21 21 -23 -24 24 -26 -27 -28
leaf_value=0.020921278694463901 -0.041615895147161422 -0.021134391003507721 -0.020896310333595357 -0.018395117458490966 -0.023306443364863452 -0.015237143232973902 -0.001436020397572385 0.024622882193274402 -0.032168295229991067 0.0034493865635026669 -0.018518687658894355 -0.0018810545383953128 -0.0073615743126063801 0.021322961604905055 -0.012198482370843682 -0.013474572898067761 -0.030744413547753383 0.013484001347434401 0.03453435373259129 0.0079401945992745755 -0.021934788897495412 0.0038995283447067126 -0.041439635937566291 -0.025465594591136686 -0.044292178302410549 0.0042901501603887565 -0.00370912712581103
leaf_weight=153 53 147 113 61 20 88 103 150 36 178 80 348 89 99 32 50 112 503 278 186 26 215 158 36 21 31 73
leaf_count=153 53 147 113 61 20 88 103 150 36 178 80 348 89 99 32 50 112 503 278 186 26 215 158 36 21 31 73
internal_value=-3.22838e-06 0.00700521 -0.0190229 0.00182798 0.0237432 -0.0114006 0.00489737 0.00754348 -0.00443548 -0.00957653 -0.00336242 0.0050872 0.00848137 0.0083079 0.0131345 -0.00107392 -0.0197254 0.0109481 0.0297019 0.00340317 -0.00316453 0.00111242 -0.0350067 -0.0277982 -0.0194762 -0.011698 -0.0141508
internal_weight=3439 2513 926 1931 582 627 1526 1193 333 405 258 1043 695 151 131 297 298 606 431 236 329 241 299 141 88 67 186
internal_count=3439 2513 926 1931 582 627 1526 1193 333 405 258 1043 695 151 131 297 298 606 431 236 329 241 299 141 88 67 186
cat_boundaries=0 1 2 3 4 5
cat_threshold=2051 544 692 56 8
is_linear=0
shrinkage=0.0307728


Tree=14
num_leaves=28
num_cat=0
split_feature=5 14 40 9 30 39 5 12 39 17 14 30 12 12 5 14 14 17 30 39 39 39 1 20 14 14 30
split_gain=254.145 94.7255 65.6521 55.8096 35.7802 28.2545 24.5961 63.4517 31.6063 29.5851 25.5851 25.378 22.8008 19.2185 24.4281 19.2081 18.7289 29.9654 17.0054 16.5645 18.2094 17.9117 16.4738 16.144 18.9364 17.1297 15.9827
threshold=7.8989670937473049 15.253229041668417 1.0000000180025095e-35 inf 21.672690213088476 0.55063255079660689 10.004124429102015 11.238692430563116 -2.0211707897525453 4.4005842009683471 18.450737140051281 20.766039220437609 10.424941375155505 6.6253844526007919 5.8066387294484665 13.296874931766196 20.700868782039894 5.1561734468561555 17.58247845406537 -2.5889154679917747 -2.2837138299303601 -1.6037027358120415 15.294329670400684 4.886575525404063 19.983256570988129 18.960357281786496 18.987886078931002
decision_type=10 10 10 8 10 10 10 10 8 2 10 8 10 10 8 10 10 2 8 10 10 10 10 10 10 10 10
left_child=3 -2 18 5 6 13 7 9 11 19 -11 -8 -10 -1 -15 -16 22 -18 -3 -4 -21 -22 -14 24 25 -17 -27
right_child=1 2 4 -5 -6 -7 8 -9 12 10 -12 -13 16 14 15 23 17 -19 -20 20 21 -23 -24 -25 -26 26 -28
leaf_value=-0.017084374005012379 -0.0061991929383092871 -0.002153193745867261 0.031713901150709434 -0.033553142974627956 0.027942912538058137 -0.035472365428370414 0.018580985924164291 -0.024730436365126153 0.002293115017723564 0.008352375452529778 -0.028049804760540351 -0.011143746688899444 0.0012049767418003305 -0.024246102926175003 -0.015907916458255438 0.0016131757039704643 0.034301445670291593 0.0071506423586333943 -0.03000927744270861 -0.017166008519215844 0.034412661191940315 0.0061887528523013151 0.014316176390756229 -0.01830078722281828 0.014365530655971688 -0.029894444649594641 0.0049910818526447713
leaf_weight=226 551 36 44 118 94 42 438 72 490 41 33 29 182 64 101 194 76 78 49 20 31 68 181 44 82 36 19
leaf_count=226 551 36 44 118 94 42 438 72 490 41 33 29 182 64 101 194 76 78 49 20 31 68 181 44 82 36 19
internal_value=-3.29738e-06 0.0050748 0.00824094 -0.0137843 0.00943883 -0.0108973 0.00846329 0.000569358 0.0101181 0.00825537 -0.00788103 0.0167351 0.00704947 -0.00954986 -0.00639653 -0.00399658 0.0115574 0.0205497 -0.0182114 0.0155811 0.00961603 0.0150265 0.00774252 -0.000788465 0.00153946 -0.00268439 -0.0178431
internal_weight=3439 2513 1962 926 1877 808 1783 309 1474 237 74 467 1007 766 540 476 517 154 85 163 119 99 363 375 331 249 55
internal_count=3439 2513 1962 926 1877 808 1783 309 1474 237 74 467 1007 766 540 476 517 154 85 163 119 99 363 375 331 249 55
is_linear=0
shrinkage=0.0307728


Tree=15
num_leaves=28
num_cat=4
split_feature=6 36 40 2 36 13 6 0 12 36 32 2 36 3 32 6 29 33 40 40 0 6 8 12 2 33 29
split_gain=444.596 210.384 101.633 69.4181 66.0791 50.565 30.7219 26.372 23.3998 24.5844 22.4339 21.399 20.2106 19.7481 19.3171 18.4264 17.6146 16.8678 18.3095 15.6336 15.3612 14.454 19.6158 28.4781 14.417 14.3523 14.3346
threshold=1.0000000180025095e-35 0 3.6300825050489327 68.500000000000014 1 16.465215620519306 15.394436325686952 11.57621430580487 13.364648786931463 2 14.437141042598153 59.500000000000007 3 15.110040950033239 13.068485497236187 12.053215188276107 4.1510089048756029 13.812994878483581 5.7696127947239946 4.9399840769478844 12.627473310172052 12.053215188276107 13.342302114675727 11.50595079054399 62.500000000000007 10.303216637473399 1.8688348091416842
decision_type=10 1 10 8 1 2 10 8 8 1 10 10 1 2 8 10 10 10 10 10 10 10 10 10 10 8 10
left_child=2 5 -1 4 11 15 12 25 9 20 16 -3 -5 -9 -11 -2 -7 21 24 -14 -4 22 -15 -24 -19 -6 -22
right_child=1 3 8 6 7 10 -8 13 -10 14 -12 -13 19 17 -16 -17 -18 18 -20 -21 26 -23 23 -25 -26 -27 -28
leaf_value=-0.028921850629991589 0.022398096114188252 -0.021218286182679749 -0.0206327131794013 0.002372856349050411 -0.00015391046017451427 -0.0057789237228332352 0.024531672536954756 -0.023990385269853705 -0.030461493269877134 -0.006659924208740859 -0.002078363789825437 -0.0070787871786520641 0.025477593147767329 0.0069606103861153462 -0.026620048705103726 0.03513359672290866 0.031706322975474981 -0.017087542555940218 0.017613364176700334 0.0054405016295717935 -0.0220694202573774 0.013270936593866946 -0.041406362810805085 0.0081586351553062132 0.0012746626161722929 -0.02488304078229513 0.0052182065052359811
leaf_weight=441 224 149 30 330 43 15.999999999999998 118 22 42 106 89 317 87 226 81 207 46 69 37 64 20 281 21 23 98 46 206
leaf_count=441 224 149 30 330 43 16 118 22 42 106 89 317 87 226 81 207 46 69 37 64 20 281 21 23 98 46 206
internal_value=-3.19588e-06 0.0067133 -0.0182306 0.00175149 -0.00215211 0.0227549 0.0104612 0.00289828 -0.00850923 -0.00642798 0.00782155 -0.0113561 0.00700938 0.0047492 -0.0145288 0.0285147 0.0220327 0.00558665 -0.00197269 0.0159301 5.48148e-05 0.00838538 0.00330079 -0.0154974 -0.00631212 -0.0129353 0.00280337
internal_weight=3439 2513 926 1931 1332 582 599 866 485 443 151 466 481 777 187 431 62 755 204 151 256 551 270 44 167 89 226
internal_count=3439 2513 926 1931 1332 582 599 866 485 443 151 466 481 777 187 431 62 755 204 151 256 551 270 44 167 89 226
cat_boundaries=0 1 2 3 4
cat_threshold=2051 552 3341 680
is_linear=0
shrinkage=0.0307728


Tree=16
num_leaves=28
num_cat=2
split_feature=4 14 6 6 6 35 39 13 2 4 5 13 13 6 27 35 27 5 27 6 4 28 14 27 4 27 4
split_gain=426.009 131.457 70.7386 42.045 41.5941 40.8896 40.1112 27.4493 23.0504 25.9589 20.4541 22.3268 19.8111 23.0967 19.7258 19.5672 22.1358 16.619 22.0074 16.3541 15.7769 15.3979 14.9993 14.213 14.2021 16.0565 13.8333
threshold=10.780121090928551 16.164835336765179 8.9488981688886415 13.954327297475157 16.440152966917214 0 -2.0211707897525453 17.247920391038722 70.500000000000014 15.696604946018757 9.3497527592988288 15.273213524954999 16.465215620519306 15.394436325686952 4.3630783395783075 1 3.9219243190762363 10.004124429102015 4.1026092131977068 12.678420388015995 14.491903128626477 3.0201273556387074 19.983256570988129 3.1132683346437333 13.970161453617179 4.3630783395783075 1.0000000180025095e-35
decision_type=10 10 10 8 8 9 10 2 10 10 10 2 2 10 10 9 8 10 8 10 10 10 10 8 10 10 10
left_child=4 3 17 15 -1 26 7 -4 9 10 11 -8 -10 21 -5 16 -2 18 22 24 -21 -14 -3 -19 -12 -26 -6
right_child=1 2 6 14 5 -7 8 -9 12 -11 19 -13 13 -15 -16 -17 -18 23 -20 20 -22 -23 -24 -25 25 -27 -28
leaf_value=-0.0086763482948250033 -0.01217106767071241 -0.0070799114887027765 0.023297744635678134 -0.015008739140900644 -0.027948976025579973 -0.037296963473254049 0.010979062213958819 -0.0035332404099593377 0.028787146422043015 -0.013045020726518759 0.0087456963901378724 -0.012709485955350078 -0.0068677138299966479 0.025387073604496317 0.0011780074848486402 0.0084255219508748893 0.0046595043575687429 -0.017227856375534444 -0.02029182544146773 0.02227227542872429 0.006920971783003829 0.01147881169801325 0.022613478177877278 0.0057035445130462926 -0.024192475785286643 0.013473408605843836 -0.011607552766104324
leaf_weight=125 148 49 371 343 85 242 69 40 83 61 194 83 59 86 90 216 148 29 86 160 105 163 24 218 29 17 116
leaf_count=125 148 49 371 343 85 242 69 40 83 61 194 83 59 86 90 216 148 29 86 160 105 163 24 218 29 17 116
internal_value=-2.8852e-06 0.00481457 0.009427 -0.00458601 -0.0243531 -0.0287765 0.012475 0.0206865 0.00943173 0.00615783 0.00794074 -0.00195613 0.0154437 0.0118479 -0.0116443 0.00138321 -0.00375578 -0.00198405 -0.00974396 0.0109196 0.0161897 0.00660293 0.0026823 0.00301119 0.00510055 -0.0102725 -0.0185181
internal_weight=3439 2871 1926 945 568 443 1520 411 1109 718 657 152 391 308 433 512 296 406 159 505 265 222 73 247 240 46 201
internal_count=3439 2871 1926 945 568 443 1520 411 1109 718 657 152 391 308 433 512 296 406 159 505 265 222 73 247 240 46 201
cat_boundaries=0 1 2
cat_threshold=8 2
is_linear=0
shrinkage=0.0307728


Tree=17
num_leaves=28
num_cat=3
split_feature=6 36 36 36 17 6 5 5 5 3 9 10 5 3 5 6 7 9 20 5 5 9 5 10 3 3 16
split_gain=393.926 193.144 64.8458 63.9901 57.1415 32.2324 38.2253 27.3518 25.3461 23.7484 23.0528 28.5381 21.8017 20.5517 19.4868 19.4332 18.7194 20.1636 18.6953 16.6317 16.2776 16.1798 16.1313 15.5468 24.2284 28.8478 19.824
threshold=1.0000000180025095e-35 0 1 2 5.3008111373035574 11.589432592183313 5.8066387294484665 11.30325885026587 13.877441618698155 18.440215564731094 14.582897920396686 11.659847147543138 8.9563501095257774 16.519581452026525 13.877441618698155 10.667809111730879 16.937865823137312 22.16866150896146 2.4414009612931857 9.3497527592988288 11.098931309712194 21.135318477302274 5.8066387294484665 13.12248267585108 17.413437691741205 16.929748267152782 1.0000000180025095e-35
decision_type=10 1 1 1 2 10 10 10 8 2 10 8 8 2 10 10 10 10 10 8 10 8 10 10 2 2 2
left_child=3 4 7 10 15 21 18 -3 20 14 11 -1 -12 -9 -8 19 17 -11 -7 -2 -5 -4 -17 24 25 -14 -26
right_child=1 2 5 8 -6 6 9 13 -10 16 12 -13 23 -15 -16 22 -18 -19 -20 -21 -22 -23 -24 -25 26 -27 -28
leaf_value=-0.047008021481126497 -0.0038396976728299272 -0.020061776685784967 -0.0011807163423067405 -0.023989479154291577 0.00076411774328448119 -0.026742060389104687 0.0089595499484711096 -0.021367992377090077 -0.033786849133625958 0.016032318220602308 -0.021221201578478406 -0.0091832796940881194 -0.0066059942407326764 0.00077461410650805733 -0.0047499603545374984 0.011771661688615513 0.026618603517950409 -0.010239391895147306 -0.0011117388475612162 0.022284725751182035 -0.007282342010943567 -0.02432021064549917 0.032524921603815642 0.020266626376051776 -0.001824936568433374 0.018638608921928857 -0.031066482240118244
leaf_weight=30 30 147 372 202 99 33 540 49 200 132 65 51 119 209 120 40 116 35 147 100 76 31 313 28 42 67 46
leaf_count=30 30 147 372 202 99 33 540 49 200 132 65 51 119 209 120 40 116 35 147 100 76 31 313 28 42 67 46
internal_value=-2.79643e-06 0.00631939 0.00156647 -0.0171601 0.0216894 0.00447574 0.00718423 -0.00923908 -0.0249113 0.00966469 -0.00815182 -0.0231924 -0.00505434 -0.00343076 0.00646691 0.0264274 0.0171224 0.0105263 -0.00581063 0.016256 -0.0194221 -0.00296068 0.0301733 -0.00157472 -0.00380669 0.00248749 -0.0171103
internal_weight=3439 2513 1931 926 582 1526 1123 405 478 943 448 81 367 258 660 483 283 167 180 130 278 403 353 302 274 186 88
internal_count=3439 2513 1931 926 582 1526 1123 405 478 943 448 81 367 258 660 483 283 167 180 130 278 403 353 302 274 186 88
cat_boundaries=0 1 2 3
cat_threshold=2051 544 3339
is_linear=0
shrinkage=0.0307728


Tree=18
num_leaves=28
num_cat=1
split_feature=6 38 26 38 38 12 35 38 0 38 10 31 7 19 21 38 38 0 10 26 38 31 12 7 6 26 0
split_gain=370.054 98.3416 86.2494 32.0011 30.2031 26.255 24.558 51.3182 24.4283 22.9816 22.2285 21.5849 33.8654 18.2751 18.2447 17.7261 21.6611 21.6448 17.664 16.9784 16.6909 16.4902 15.4379 15.2218 22.7612 13.2797 21.9556
threshold=1.0000000180025095e-35 -5.7213283767195495 3.5114340430413216 -4.7522081040924382 0.98354783683235791 13.364648786931463 0 -1.9083559187974097 12.627473310172052 0.26281282443662862 8.8786170904102182 20.233974673736181 18.077483740813207 15.054750333721215 4.7140145363037149 -0.62370031312510388 -2.5830134152942903 15.668410669077927 13.12248267585108 5.1209788959100075 -3.2505662797920798 20.71517216066071 8.0511812659846616 15.110144164544385 14.186479920804915 4.4005842009683471 15.668410669077927
decision_type=10 10 10 8 10 8 9 10 10 10 10 10 10 2 8 8 10 10 8 10 10 8 10 10 10 10 10
left_child=1 -1 9 -4 11 6 10 -8 -9 14 -3 13 15 -5 21 16 17 -13 -7 23 -15 -2 -16 -17 -25 -18 -27
right_child=2 5 3 4 -6 18 7 8 -10 -11 -12 12 -14 20 22 19 25 -19 -20 -21 -22 -23 -24 24 -26 26 -28
leaf_value=-0.031154073175300213 0.0077140461185698141 -0.017973815082950113 -0.013583604550518179 0.0027938829735242201 -0.011036124426041375 -0.048082825137524578 -0.02315018858196051 -0.025360494627939205 0.0046814734175509593 -0.014039307565843628 0.0064041354469351547 0.0041912705866088609 0.023273202548269721 0.0056742586074160347 -0.025413133726373362 -0.022588020254506579 0.0055521680829644501 -0.028475834073417042 -0.0093542249901249937 0.011208411354916153 0.021032272103319052 -0.0051946989329966003 -0.0022766202641725459 0.014803485567202797 -0.011762849986197487 0.020780638095664362 0.0047728490812702978
leaf_weight=299 247 46 55 84 61 27 202 31 148 149 154 225 133 81 44 40 182 21 19 80 388 151 72 52 74 255 119
leaf_count=299 247 46 55 84 61 27 202 31 148 149 154 225 133 81 44 40 182 21 19 80 388 151 72 52 74 255 119
internal_value=-2.71038e-06 -0.016632 0.00612492 0.00953779 0.0102462 -0.00970683 -0.00793496 -0.0125188 -0.000521326 -0.00339816 0.000797207 0.0109949 0.00864554 0.0160123 -0.000313472 0.00678917 0.0090057 0.00140262 -0.0320862 -0.000437063 0.0183798 0.00281651 -0.0110525 -0.00604934 -0.000798965 0.0123697 0.0156873
internal_weight=3439 926 2513 1850 1795 627 581 381 179 663 200 1734 1181 553 514 1048 802 246 46 246 469 398 116 166 126 556 374
internal_count=3439 926 2513 1850 1795 627 581 381 179 663 200 1734 1181 553 514 1048 802 246 46 246 469 398 116 166 126 556 374
cat_boundaries=0 1
cat_threshold=8
is_linear=0
shrinkage=0.0307728


Tree=19
num_leaves=28
num_cat=4
split_feature=7 36 27 36 13 36 19 19 36 11 31 27 14 11 7 7 30 27 14 13 0 13 14 0 27 14 0
split_gain=347.63 178.467 76.1477 59.3646 44.3563 40.3096 29.7119 23.6666 20.8851 17.8082 16.3219 17.7175 16.446 26.4418 15.8147 15.7952 14.0923 27.9914 13.9838 14.7273 14.5557 13.6606 16.0805 13.6354 13.2405 12.8615 17.6381
threshold=inf 0 4.2835627800822236 1 16.465215620519306 2 14.150348286400762 17.479650070736287 3 16.604343008033904 19.931158511655504 4.8242976514536702 19.427533066946761 15.785730734724696 13.151924045984176 16.937865823137312 18.987886078931002 4.9308638091439496 8.4751193489617265 16.106790264866095 13.03225372986063 17.558252676599405 20.700868782039894 13.445313890437061 4.5379471377116305 20.964021593357717 14.204414487887687
decision_type=8 1 10 1 2 1 2 2 1 8 8 10 10 8 10 10 10 10 10 2 10 2 8 10 10 10 10
left_child=1 4 5 16 14 -3 -7 8 -4 24 11 12 -5 -14 -1 -9 -2 25 -8 -20 -21 22 -6 -12 -10 26 -18
right_child=3 2 7 10 21 6 18 15 9 -11 23 -13 13 -15 -16 -17 17 -19 19 20 -22 -23 -24 -25 -26 -27 -28
leaf_value=0.018149054517856884 -0.011202031893398296 -0.015343450447781071 -0.0028572212048364456 -0.020643210092150643 -0.0025950975356485071 -0.012835905215420076 -0.013865693878689122 0.0085961526777015469 0.018158425780279912 0.018276620825487314 -0.039232470922971524 -0.045140415685031798 0.01608525006791239 -0.032624971929837453 0.030467835802033719 0.022819775344021666 0.010028149145684995 -0.025468737260940833 0.0056784669068448744 -0.023683417494440185 7.2045914773228364e-05 -0.0089714739737172238 0.021380362483219714 -0.023105664377327466 9.4028705555281072e-05 0.029786123291865921 -0.025122610985806114
leaf_weight=153 314 229 229 209 43 160 49 162 49 130 95 23 31 15.999999999999998 278 136 66 30 482 33 94 39 69 104 178 21 17
leaf_count=153 314 229 229 209 43 160 49 162 49 130 95 23 31 16 278 136 66 30 482 33 94 39 69 104 178 21 17
internal_value=-2.62695e-06 0.00593644 0.00136921 -0.0161202 0.0207105 -0.00423879 -0.000931067 0.00802675 0.00443615 0.00894403 -0.0235781 -0.0192689 -0.0169445 -0.000496953 0.0260948 0.0150875 -0.00746991 0.000718059 0.00194958 0.00322207 -0.00610063 0.0067137 0.0121755 -0.0308044 0.00399339 0.00827194 0.0028286
internal_weight=3439 2513 1931 926 582 1047 818 884 586 357 478 279 256 47 431 298 448 134 658 609 127 151 112 199 227 104 83
internal_count=3439 2513 1931 926 582 1047 818 884 586 357 478 279 256 47 431 298 448 134 658 609 127 151 112 199 227 104 83
cat_boundaries=0 1 2 3 4
cat_threshold=2051 3339 544 552
is_linear=0
shrinkage=0.0307728


Tree=20
num_leaves=28
num_cat=0
split_feature=7 15 39 15 2 7 22 33 22 16 22 33 22 7 28 1 33 1 1 29 15 22 2 29 15 7 33
split_gain=326.496 112.078 46.3076 36.8586 29.7318 26.5181 26.0707 25.4276 24.7835 23.7376 23.0196 21.3118 20.9428 19.1633 18.6373 20.7479 16.4719 15.7686 15.496 15.3693 14.9928 14.5193 17.1082 14.4551 14.2422 14.1687 15.9622
threshold=inf 8.6108517206523967 -2.0211707897525453 13.578121348964624 62.500000000000007 16.937865823137312 3.2769667020129059 13.812994878483581 1.7005986908310777 1.0000000180025095e-35 1.4978661367769956 12.050174614052073 3.9981586158983733 14.626194244277896 0.89587973461402759 14.647460523574919 15.491204359752279 14.055932357650553 14.647460523574919 4.9380581778699986 10.778910368510489 1.8688348091416842 72.500000000000014 2.4414009612931857 14.292606653291244 14.626194244277896 11.351334892192954
decision_type=8 10 10 10 10 10 8 10 10 2 10 10 10 10 10 10 10 10 10 8 10 10 10 10 10 10 10
left_child=1 19 12 14 7 6 9 17 10 13 -5 18 25 -6 -2 -16 -15 23 -10 -1 -7 -22 -23 -4 -11 26 -3
right_child=3 2 4 8 5 20 -8 -9 11 24 -12 -13 -14 16 15 -17 -18 -19 -20 -21 21 22 -24 -25 -26 -27 -28
leaf_value=-0.0058596480672986982 -0.027098817068479348 0.020941261643201675 0.013395148182299964 -0.0013110790138784144 -0.0053580560108557832 0.0038435125878271336 -0.0033058348934225704 -0.010577357317591423 -0.014388492850690927 0.012307718715508011 0.036277259300833073 -0.0050460472799379423 -0.0092712498225405206 0.015737447536851926 -0.0087806447315075427 -0.021825214223127765 -0.0084809465934033313 0.0085468386581454957 -0.048678575180032879 -0.026234432955549725 0.040941441038477452 0.0042301669101978672 0.023734712807569096 -0.014139014600300672 0.031202307543544493 0.024543443220369013 0.0082104499285257058
leaf_weight=453 206 174 25 108 112 65 207 153 26 102 18 77 29 137 209 258 33 248 24 38 29 62 136 65 60 184 201
leaf_count=453 206 174 25 108 112 65 207 153 26 102 18 77 29 137 209 258 33 248 24 38 29 62 136 65 60 184 201
internal_value=-4.17476e-06 0.00575153 0.00895397 -0.0156241 0.00597191 0.00916924 0.00571317 -0.000168792 -0.00561082 0.00991798 0.00405868 -0.0152042 0.0162265 0.00452502 -0.0193884 -0.0159873 0.0110362 0.00454278 -0.0308477 -0.00743652 0.0168744 0.0206057 0.0176272 -0.00649064 0.0193057 0.0175493 0.0141175
internal_weight=3439 2513 2022 926 1434 943 651 491 253 444 126 127 588 282 673 467 170 338 50 491 292 227 198 90 162 559 375
internal_count=3439 2513 2022 926 1434 943 651 491 253 444 126 127 588 282 673 467 170 338 50 491 292 227 198 90 162 559 375
is_linear=0
shrinkage=0.0307728


Tree=21
num_leaves=28
num_cat=3
split_feature=40 37 28 28 0 31 40 14 28 0 27 29 30 35 12 31 30 14 14 12 12 27 40 12 35 39 29
split_gain=132.378 119.921 44.9756 41.2797 32.9717 25.5259 20.9408 35.6476 36.2527 25.3878 20.2813 22.9216 19.0522 23.1312 22.9241 18.638 24.8262 24.442 19.7496 17.6298 15.2916 14.9767 13.1708 13.1306 12.904 12.6326 11.6285
threshold=1.0000000180025095e-35 0 2.8617925509761908 0.89587973461402759 11.57621430580487 22.719635476873339 4.1245547609665598 18.703602147166919 3.0201273556387074 14.330716917079997 3.1132683346437333 4.9380581778699986 19.964181049581253 1 8.5418774089331588 21.065323882154338 20.766039220437609 19.983256570988129 19.733874317087679 10.738371956918373 10.738371956918373 3.7256208424938388 3.4403154238725695 12.998598001167817 2 -0.75868856698201081 3.4175922930736511
decision_type=10 9 10 10 10 10 10 8 10 10 8 8 10 9 10 10 10 10 8 10 10 10 10 8 9 10 10
left_child=24 3 4 -2 -3 25 7 21 9 12 23 19 13 14 -9 16 17 18 -8 26 -11 -5 -10 -6 -1 -4 -12
right_child=1 2 5 6 10 -7 15 8 22 20 11 -13 -14 -15 -16 -17 -18 -19 -20 -21 -22 -23 -24 -25 -26 -27 -28
leaf_value=-0.026486179885062043 -0.0067780539346097941 -0.031761150945149724 0.0036627843341770819 -0.0016315783497652808 -0.011841401088533423 0.021155471943607736 0.013113800603149678 -0.020343324555716462 -0.006637348401907453 -0.056594178126659671 -0.0031286093810517289 -0.025349362180566409 0.025195293500927304 -0.019890078242819954 0.01771824065513964 0.0064390405074307372 -0.01209885884276285 0.023263538334797274 -0.011742312190658107 0.0018993688158672217 -0.016232541805284717 0.014072678335444615 0.026282552871633433 -0.034670791572263895 -0.013597441878095877 -0.023581590878444757 -0.013484449928075761
leaf_weight=140 186 51 83 74 205 85 276 23 15.999999999999998 15.999999999999998 257 46 17 84 43 455 31 254 34 371 20 258 41 27 155 20 171
leaf_count=140 186 51 83 74 205 85 276 23 16 16 257 46 17 84 43 455 31 254 34 371 20 258 41 27 155 20 171
internal_value=-4.04628e-06 0.00184534 -0.00522181 0.00692376 -0.00758397 0.00867337 0.00851802 0.00388984 -0.00464319 -0.0107321 -0.00643909 -0.00422639 -0.00567939 -0.00917852 0.00445436 0.0111274 0.0147127 0.0161864 0.0103876 -0.0030103 -0.034171 0.0105723 0.0170419 -0.0144983 -0.0197141 -0.00162739 -0.00726611
internal_weight=3439 3144 1316 1828 1128 188 1642 592 260 203 1077 845 167 150 66 1050 595 564 310 799 36 332 57 232 295 103 428
internal_count=3439 3144 1316 1828 1128 188 1642 592 260 203 1077 845 167 150 66 1050 595 564 310 799 36 332 57 232 295 103 428
cat_boundaries=0 1 2 3
cat_threshold=40 8 2
is_linear=0
shrinkage=0.0307728


Tree=22
num_leaves=28
num_cat=7
split_feature=4 36 27 36 6 6 27 38 36 21 18 6 36 36 6 14 36 3 18 21 31 27 38 36 14 4 31
split_gain=327.887 177.671 71.5743 37.1999 32.6633 29.1477 26.6695 36.6925 25.5211 24.5394 24.4571 22.1672 18.9369 18.098 17.5453 17.3839 15.9409 15.3711 14.9546 22.3817 27.8539 14.8471 13.4096 12.9866 15.3878 13.8656 12.3515
threshold=10.780121090928551 0 3.9219243190762363 1 11.040534667940614 16.440152966917214 5.4531797844617023 -2.4172267832886063 2 5.2704288588135384 10.42321838809576 7.5383917497101374 3 4 10.209167461435081 19.983256570988129 5 16.380912539091479 11.903500258293802 4.2555875595453383 17.946805850677723 4.6298509007569537 -4.2215385312380365 6 12.443011792411715 11.792460549726609 20.089612187606917
decision_type=10 1 10 1 10 8 10 10 1 10 2 10 1 1 10 10 1 2 2 8 10 10 8 1 10 10 10
left_child=5 3 10 11 16 -1 15 -8 21 13 17 -2 -12 18 26 23 -4 -3 19 20 -7 -6 -15 -5 -25 -26 -14
right_child=1 2 4 6 8 9 7 -9 -10 -11 12 -13 14 22 -16 -17 -18 -19 -20 -21 -22 -23 -24 24 25 -27 -28
leaf_value=-0.0082433340611234342 -0.00087689325229681843 -0.022580109585604431 0.00086352231289416981 0.014421753165567965 -0.0055816928833956189 0.030510582665115266 -0.025257448814956188 0.010862717819086379 0.012164732277497153 -0.040266024640782376 -0.014031586375598174 0.033585862473294342 -0.003509904514150679 -0.018092718403509955 0.0021601410885521005 0.020597394568180653 -0.014373237631085081 0.0035737242440434937 0.01712944601196742 -0.035579824083448855 -0.017283283919914016 0.0063513981227990386 -0.032363497491056534 -0.022182905157884306 -0.020523283229084567 0.0097855492310568674 -0.020707317313573247
leaf_weight=125 20 143 160 274 173 17 41 76 412 82 169 152 101 103 309 249 102 25 18 29 36 230 158 20 15.999999999999998 134 65
leaf_count=125 20 143 160 274 173 17 41 76 412 82 169 152 101 103 309 249 102 25 18 29 36 230 158 20 16 134 65
internal_value=-3.9218e-06 0.00422248 -0.00132625 0.0147594 0.00386788 -0.0213666 0.0116509 -0.00179478 0.00690639 -0.0250695 -0.00823185 0.0279534 -0.00550411 -0.0216177 -0.00212988 0.0140891 -0.00558398 -0.0186882 -0.00751821 -0.0138455 -0.00195318 0.001199 -0.0257453 0.0104392 0.00299574 0.00655261 -0.0102438
internal_weight=3439 2871 1889 982 1077 568 810 117 815 443 812 172 644 361 475 693 262 168 100 82 53 403 261 444 170 150 166
internal_count=3439 2871 1889 982 1077 568 810 117 815 443 812 172 644 361 475 693 262 168 100 82 53 403 261 444 170 150 166
cat_boundaries=0 1 2 3 4 5 6 7
cat_threshold=3331 2 616 544 3073 28 2049
is_linear=0
shrinkage=0.0307728


Tree=23
num_leaves=28
num_cat=0
split_feature=40 26 23 15 23 30 30 19 15 3 22 40 15 19 0 15 0 17 0 25 26 15 23 0 40 15 15
split_gain=118.179 99.1679 29.6659 27.7489 33.1433 35.2338 32.829 25.7401 25.0203 19.8446 20.1916 19.3658 30.8656 16.4093 16.3928 16.0565 15.748 26.1977 14.1412 15.4112 15.0375 15.1664 13.6195 13.4742 15.1805 14.9091 12.9771
threshold=1.0000000180025095e-35 3.5114340430413216 4.1026092131977068 8.6108517206523967 4.4248287033199567 21.672690213088476 19.376983710483355 14.846032678128127 14.292606653291244 18.164925531057147 3.3842466058243152 4.2388644012453218 12.595050648881086 12.70904981547147 12.828492733377699 13.578121348964624 13.896233915973172 4.7229433450037179 15.668410669077927 14.624135979356813 5.7884287761319815 16.091428130666635 2.0126758453675748 13.445313890437061 4.1245547609665598 11.422437113612366 10.778910368510489
decision_type=10 10 8 10 8 10 10 2 10 2 10 10 10 2 10 10 10 2 10 10 10 10 10 10 10 10 10
left_child=2 8 15 -3 6 9 7 23 13 11 -11 12 14 -2 -6 -1 17 -14 19 -12 -20 -22 -9 24 -5 -25 -8
right_child=1 3 -4 4 5 -7 26 22 -10 10 18 -13 16 -15 -16 -17 -18 -19 20 -21 21 -23 -24 25 -26 -27 -28
leaf_value=-0.014518116043298689 -0.020303500433089199 -0.0041544940579697036 -0.031282285095875773 -0.01706820824382322 -0.018925961510532063 0.020119629552032562 0.00026109592124910704 0.030421465905086688 0.011855629953781584 0.011257795993820026 -0.0045599661797942476 0.0015434892151199053 -0.03519953898548376 -0.0068265123102926933 0.0082691611574451426 0.012958101975621243 -0.041129274856737563 0.014367188846866007 -0.020573270138902207 0.013505880830490268 0.01286570421590226 -0.018077243824914182 0.0084161014377658657 -0.038461152114012118 0.020758811636003183 -0.0062554416212505974 0.02168031064214989
leaf_weight=162 97 267 110 15.999999999999998 31 98 30 28 62 238 87 220 23 725 65 23 37 18 56 92 40 24 546 19 27 48 250
leaf_count=162 97 267 110 16 31 98 30 28 62 238 87 220 23 725 65 23 37 18 56 92 40 24 546 19 27 48 250
internal_value=-3.88652e-06 0.00174351 -0.0186269 0.00516159 0.00640966 0.00256868 0.0105096 0.00687627 -0.00699504 0.000721209 0.00456955 -0.00452387 -0.0121952 -0.00841686 -0.000512597 -0.0111022 -0.0265739 -0.0134385 -0.000754197 0.00472527 -0.00892774 0.0012621 0.00948953 -0.00676024 0.00668364 -0.0153884 0.0193854
internal_weight=3439 3144 295 2260 1993 1029 964 684 884 931 537 394 174 822 96 185 78 41 299 179 120 64 574 110 43 67 280
internal_count=3439 3144 295 2260 1993 1029 964 684 884 931 537 394 174 822 96 185 78 41 299 179 120 64 574 110 43 67 280
is_linear=0
shrinkage=0.0307728


Tree=24
num_leaves=28
num_cat=3
split_feature=36 18 34 36 25 1 21 36 12 28 12 14 34 28 14 16 1 34 25 21 12 14 28 14 14 1 28
split_gain=170.983 102.884 49.031 30.6378 30.5784 26.7945 26.6297 28.3499 23.2706 20.3833 19.0869 18.8044 18.5389 17.0701 15.9469 15.9355 16.0493 15.138 14.9016 18.0007 13.5297 14.602 19.7914 14.0122 16.3254 13.9004 16.1904
threshold=0 12.551352408720829 inf 1 15.236567589864732 13.503835597386816 5.2704288588135384 2 12.379420490195988 2.3502401828962087 8.5418774089331588 20.467013318118429 inf 1.4978661367769956 20.244511599140413 1.0000000180025095e-35 14.553377453281966 inf 9.5749460565011564 5.6076369307404796 7.3585119195829884 19.983256570988129 2.740319461670996 18.960357281786496 13.296874931766196 15.588002084906512 1.0000000180025095e-35
decision_type=1 2 8 1 10 8 10 1 8 10 8 10 8 10 10 2 10 8 10 10 10 10 10 10 10 10 10
left_child=2 3 6 9 17 10 13 -8 -9 15 -5 -4 20 -1 -14 16 -2 -3 -11 -20 25 23 -23 24 -22 26 -7
right_child=1 4 11 5 -6 12 7 8 -10 18 -12 -13 14 -15 -16 -17 -18 -19 19 -21 21 22 -24 -25 -26 -27 -28
leaf_value=0.010334283296872476 -0.029018716197854583 0.0051221399367436821 -0.030515340535068571 -0.0084352752129515478 0.020878204627085863 -0.024168785392429108 0.014251547367010146 -0.020516242622810769 0.0087720492320438794 -0.028168377599342369 -0.030195469763173003 0.0093229175610094472 -0.02246605648530596 0.022669711663969843 0.010464484323777919 -0.004892379441974703 -0.014949244824039363 -0.016430437971674681 0.013298105968644974 -0.015365522075136855 -0.0076085760383950837 0.015260495927536371 -0.020680628579379186 -0.011418611644745171 0.0034721710801050624 -0.021459159551511873 -0.0022715340245111999
leaf_weight=156 115 476 33 102 122 36 157 54 49 17 61 17 77 333 17 87 231 33 59 32 180 99 17 119 419 55 286
leaf_count=156 115 476 33 102 122 36 157 54 49 17 61 17 77 333 17 87 231 33 59 32 180 99 17 119 419 55 286
internal_value=-3.76692e-06 -0.00378399 0.012379 -0.00720291 0.00704132 -0.00478254 0.0145035 0.00654601 -0.00600041 -0.0134338 -0.0165787 -0.0169703 -0.00334581 0.0187345 -0.0165105 -0.0166653 -0.0196255 0.00372482 -0.00172195 0.00321859 -0.00232394 -0.000137051 0.00999326 -0.0017737 0.000142397 -0.00716177 -0.00471967
internal_weight=3439 2640 799 2009 631 1468 749 260 103 541 163 50 1305 489 94 433 346 509 108 91 1211 834 116 718 599 377 322
internal_count=3439 2640 799 2009 631 1468 749 260 103 541 163 50 1305 489 94 433 346 509 108 91 1211 834 116 718 599 377 322
cat_boundaries=0 1 2 3
cat_threshold=2051 560 3
is_linear=0
shrinkage=0.0307728


Tree=25
num_leaves=28
num_cat=0
split_feature=4 19 38 2 20 16 38 12 39 39 20 11 19 4 39 39 39 17 12 19 20 11 38 11 17 11 39
split_gain=297.119 61.1326 39.7246 32.6736 31.7349 25.8351 30.0198 22.1822 21.7747 20.3187 19.6189 17.1477 16.7638 22.2938 16.1171 15.7044 16.1031 15.4688 14.6039 14.4197 12.47 14.3143 12.4422 11.9854 11.8201 11.7561 11.3957
threshold=10.780121090928551 15.703059522516289 -2.5830134152942903 58.500000000000007 4.886575525404063 1.0000000180025095e-35 -5.7213283767195495 6.6253844526007919 1.0000000180025095e-35 -2.0211707897525453 3.5694334999727624 15.103969291933357 17.479650070736287 16.664365386597719 -3.1919817633057126 -1.6037027358120415 -2.7412783374947671 3.9981586158983733 12.699042232312172 16.695407058243081 4.0342014792848504 17.779614710197627 -3.5035366510958483 12.966009397144871 2.249904835165133 16.29859337788761 -0.75868856698201081
decision_type=10 2 10 8 10 2 10 10 10 10 10 8 2 10 8 10 10 2 8 2 10 8 10 10 2 10 10
left_child=5 3 4 14 10 -1 11 20 24 25 22 -7 13 -11 -2 16 -13 23 -16 -18 21 -5 -3 -8 -9 -4 -6
right_child=1 2 9 7 26 6 17 8 -10 12 -12 15 -14 -15 18 -17 19 -19 -20 -21 -22 -23 -24 -25 -26 -27 -28
leaf_value=-0.02611563916266451 0.008974856516690841 -0.015943348109201276 0.019153573744522742 0.0081090282596836417 -0.0072792677804126259 -0.033965069458973804 -0.0099231946448723879 -0.015768335797928797 -0.010470134722396171 0.0067681931077576939 0.010056270941009643 -0.02369490090358501 0.015060238187518492 -0.020408121509154269 -0.0076236457750629644 -0.031539740010904857 -0.0073360971596972075 -0.018880821134100289 -0.02478508136043988 0.030075570636075161 -0.016843958307131836 -0.012788756926727632 0.005044739104491219 0.01833301655409382 0.010477381348206898 0.0034440065780605017 -0.030205986954600268
leaf_weight=320 48 54 303 77 142 60 21 17 61 606 266 26 238 30 360 30 25 26 54 15.999999999999998 65 52 53 44 368 53 24
leaf_count=320 48 54 303 77 142 60 21 17 61 606 266 26 238 30 360 30 25 26 54 16 65 52 53 44 368 53 24
internal_value=-2.37574e-06 0.00402084 0.007565 -0.00166847 0.000598884 -0.020338 -0.012883 0.00283353 0.00661197 0.0106176 0.00558016 -0.0210341 0.00809338 0.00548629 -0.00790501 -0.0130356 -0.00475016 0.00117983 -0.00986209 0.00726358 -0.00585298 -0.000314885 -0.00554738 0.00920409 0.00931848 0.0168148 -0.010594
internal_weight=3439 2871 1769 1102 539 568 248 640 446 1230 373 157 874 636 462 97 67 91 414 41 194 129 107 65 385 356 166
internal_count=3439 2871 1769 1102 539 568 248 640 446 1230 373 157 874 636 462 97 67 91 414 41 194 129 107 65 385 356 166
is_linear=0
shrinkage=0.0307728


Tree=26
num_leaves=28
num_cat=0
split_feature=4 7 3 28 7 40 5 7 23 22 20 18 7 40 4 20 18 22 1 3 23 40 5 5 1 18 40
split_gain=279.114 60.2721 36.5153 31.0844 29.7849 28.972 22.8503 20.1504 18.2108 16.4547 14.6463 14.3001 13.5598 13.1837 13.0722 12.6151 25.9363 12.2743 12.1508 13.6348 11.9108 20.5355 14.8069 11.4221 13.4115 11.2015 10.5222
threshold=10.780121090928551 8.8683304114710264 15.684849276608348 0.89587973461402759 13.465031886348443 4.1245547609665598 5.8066387294484665 14.86267598603623 4.2121001622835372 2.740319461670996 3.6762205501217919 11.510302020681689 12.252117177283536 3.6300825050489327 11.792460549726609 4.2972622671762819 11.903500258293802 1.0000000180025095e-35 14.647460523574919 16.846678663653957 3.6242520361853052 3.191143149342603 10.004124429102015 13.63005529616945 13.822286348180326 12.927441986408853 5.0572633147042501
decision_type=10 10 2 10 8 10 10 10 10 10 10 2 10 10 10 10 2 10 10 2 8 8 10 8 10 2 10
left_child=4 3 23 14 12 20 7 -4 13 10 11 -7 -1 -6 -2 16 -10 -16 19 -15 21 -5 -22 24 -3 -11 -19
right_child=1 2 6 5 8 9 -8 -9 15 25 -12 -13 -14 18 17 -17 -18 26 -20 -21 22 -23 -24 -25 -26 -27 -28
leaf_value=-0.010266317310279289 -0.00028796366516572818 0.0067273410363383728 0.0093753840923102953 0.017166748649890234 -0.023832238335671579 0.006349120265980078 0.0082706129753539123 -0.0076820620317585549 -0.037325326440768587 -0.018042699412781662 0.015162070712701455 -0.024927806162469413 0.017527565905830104 -0.013591979609799463 -0.049504203743100245 -0.040261706064421816 0.0013326279901894732 -0.030708160938047107 -0.022426363139148604 0.012749887573661287 -0.025406683052315995 -0.015962277716417044 -0.004666113847925318 -0.021053364368416976 -0.023818064145054472 0.010540534597854225 -0.0069561945581540123
leaf_weight=68 26 48 106 34 197 51 1891 172 42 41 137 19 22 49 15.999999999999998 78 27 38 55 30 70 37 61 53 19 19 33
leaf_count=68 26 48 106 34 197 51 1891 172 42 41 137 19 22 49 16 78 27 38 55 30 70 37 61 53 19 19 33
internal_value=-2.30261e-06 0.00389711 0.00614537 -0.00494528 -0.0197122 -0.00145445 0.00705957 -0.00117814 -0.0227699 0.00519813 0.00931102 -0.00214033 -0.00347226 -0.0187671 -0.0194338 -0.031783 -0.0221983 -0.0251555 -0.0113206 -0.00358874 -0.0102477 -9.76735e-05 -0.0157489 -0.0103788 -0.00193479 -0.00899134 -0.0196685
internal_weight=3439 2871 2289 582 568 469 2169 278 478 267 207 70 90 331 113 147 69 87 134 79 202 71 131 120 67 60 71
internal_count=3439 2871 2289 582 568 469 2169 278 478 267 207 70 90 331 113 147 69 87 134 79 202 71 131 120 67 60 71
is_linear=0
shrinkage=0.0307728


Tree=27
num_leaves=28
num_cat=0
split_feature=5 27 8 14 8 14 39 17 31 5 27 5 5 0 39 14 3 29 0 29 5 14 3 27 29 39 18
split_gain=147.71 57.2275 44.0265 37.5415 33.5864 22.6461 22.1483 14.3095 21.3347 17.7552 16.4185 16.3149 15.9414 17.3472 15.7921 13.8423 13.1162 12.4441 12.0703 11.3241 23.3411 11.9069 14.3983 12.4433 10.7386 11.0052 12.8022
threshold=7.8989670937473049 3.1132683346437333 10.511919789664356 15.253229041668417 10.511919789664356 19.215332991554714 0.55063255079660689 4.9163179057820896 23.587073880790783 14.535818557315441 4.2835627800822236 10.004124429102015 9.3497527592988288 13.445313890437061 -1.8212384143941767 19.427533066946761 19.441006205144898 1.8688348091416842 13.896233915973172 3.6762205501217919 5.8066387294484665 15.253229041668417 17.703125551921016 4.2835627800822236 1.8688348091416842 -2.5889154679917747 10.82499464115921
decision_type=10 10 10 10 10 10 10 2 10 10 10 10 10 10 10 10 2 8 10 8 8 10 2 10 10 10 2
left_child=4 5 17 -4 18 -2 19 9 11 10 14 15 13 -12 -5 -9 -10 -3 -1 20 -6 23 24 -22 -23 -26 -27
right_child=1 2 3 7 6 -7 -8 8 16 -11 12 -13 -14 -15 -16 -17 -18 -19 -20 -21 21 22 -24 -25 25 26 -28
leaf_value=-0.021152462046511954 -0.0098557062383896592 0.011255326348773437 -0.0025687704225386848 0.014648611610039369 -0.023589325229818006 0.010645662179817468 -0.033190175467341765 0.00087283780608702905 0.0051179134616873437 -0.005058913503551434 0.018356791233975277 0.0050185117142764156 0.019038205624253565 -0.022703452138232678 0.0036152027932503284 -0.032439088949667134 0.029391860220993563 -0.013219188956077387 -0.0016847747196668658 -0.01075485631346426 -0.010503451701042004 -0.010045538131483102 -0.015783491128437879 0.018557979506821868 0.025245619723317812 0.025634612286204402 0.0011795268530932601
leaf_weight=267 341 23 315 229 42 60 28 27 35 58 20 541 370 19 265 21 53 136 34 219 109 26 27 15.999999999999998 40 26 92
leaf_count=267 341 23 315 229 42 60 28 27 35 58 20 541 370 19 265 21 53 136 34 219 109 26 27 16 40 26 92
internal_value=-2.23179e-06 0.00386914 0.00589262 0.00716034 -0.0105085 -0.00678817 -0.00644134 0.00903132 0.00560451 0.0114454 0.0125055 0.00349297 0.0170658 -0.00164692 0.00872988 -0.0137011 0.0197374 -0.00967885 -0.0189535 -0.00518679 -0.00196084 0.000742721 0.00520144 -0.00678359 0.00828075 0.0112965 0.00656794
internal_weight=3439 2513 2112 1953 926 401 625 1638 677 961 903 589 409 39 494 48 88 159 301 597 378 336 211 125 184 158 118
internal_count=3439 2513 2112 1953 926 401 625 1638 677 961 903 589 409 39 494 48 88 159 301 597 378 336 211 125 184 158 118
is_linear=0
shrinkage=0.0307728


Tree=28
num_leaves=28
num_cat=0
split_feature=4 15 38 38 22 26 38 26 31 21 30 14 30 21 14 11 38 11 15 21 14 2 22 14 21 11 26
split_gain=254.491 78.7153 45.1057 35.1686 35.2657 26.6933 19.6094 19.4917 26.9666 19.4937 19.58 19.1926 19.1486 19.298 18.8337 21.5745 18.4502 16.0918 15.5594 15.477 15.9762 15.0836 14.7416 12.3578 12.0986 12.3041 17.9448
threshold=10.780121090928551 8.6108517206523967 0.98354783683235791 -2.5830134152942903 3.6762205501217919 3.0677824455408698 -4.7522081040924382 4.4005842009683471 19.767066319881046 5.3636340903656388 21.672690213088476 19.733874317087679 18.987886078931002 5.3636340903656388 20.700868782039894 14.040484008858886 -0.44226875530737159 15.103969291933357 13.103735937469175 5.0005792898547883 20.244511599140413 56.500000000000007 2.1383330595080281 19.983256570988129 5.0845003501084243 13.761490652503539 5.2548844000372066
decision_type=10 10 10 8 8 10 10 10 10 10 10 10 10 8 10 10 10 8 10 10 10 10 10 8 10 10 10
left_child=6 -2 3 4 5 11 12 8 14 -9 -11 -3 17 23 15 21 22 -1 -6 20 -8 -5 -10 -14 -7 -26 -27
right_child=1 2 -4 7 18 24 19 9 16 10 -12 -13 13 -15 -16 -17 -18 -19 -20 -21 -22 -23 -24 -25 25 26 -28
leaf_value=-0.033859135799148732 -0.0066068984929801809 -0.024177623957077423 -0.011302239888373915 0.010903098777949725 -0.0026744376673718184 0.011690807090495638 -0.0079087743702122779 0.021062278432834793 0.010750215325911265 0.0080224411778066062 0.025083422365101186 0.012256932380851321 -0.011779967798994182 -0.032493675095439795 0.040482967813183647 0.004218326527764037 -0.007518792214588739 -0.020056684882943036 -0.029155258156997078 -0.028765492161063472 0.025674397329927393 0.034239378291337906 -0.0023614513671258658 0.01366407689176927 0.012752474551582597 0.0017842986362417042 -0.025170577036306409
leaf_weight=132 562 49 131 54 38 229 83 215 211 500 73 19 51 28 23 157 141 203 47 27 15.999999999999998 51 132 28 69 142 28
leaf_count=132 562 49 131 54 38 229 83 215 211 500 73 19 51 28 23 157 141 203 47 27 16 51 132 28 69 142 28
internal_value=-2.16309e-06 0.00372128 0.00623511 0.00728993 0.00109817 0.00401845 -0.0188226 0.00975947 0.00627412 0.0131608 0.010196 -0.0139974 -0.0218754 -0.0105421 0.0137837 0.0114399 0.00185214 -0.0254953 -0.0173168 -0.00811354 -0.00248119 0.0222379 0.00570433 -0.00276183 0.00663613 0.00179295 -0.00265533
internal_weight=3439 2871 2309 2178 621 536 568 1557 769 788 573 68 442 107 285 262 484 335 85 126 99 105 343 79 468 239 170
internal_count=3439 2871 2309 2178 621 536 568 1557 769 788 573 68 442 107 285 262 484 335 85 126 99 105 343 79 468 239 170
is_linear=0
shrinkage=0.0307728


Tree=29
num_leaves=28
num_cat=4
split_feature=4 36 36 36 30 23 35 15 15 18 4 4 30 23 30 11 17 18 30 15 15 23 18 30 4 23 9
split_gain=239.069 146.953 43.3621 33.9924 34.4897 28.6958 24.7378 24.026 22.4581 21.3484 26.2206 18.3749 16.198 15.9046 17.5894 15.8031 15.8029 15.1088 12.8895 17.8216 12.8148 11.8532 11.6969 11.4071 35.6584 11.0383 13.8848
threshold=10.780121090928551 0 1 2 18.024553783086237 3.7726948748059121 3 8.6108517206523967 12.02507819262625 11.423163751104743 9.0336611471807249 12.630009732891127 21.672690213088476 3.9981586158983733 18.440980936984889 15.882439148000609 4.4829865921051741 10.42321838809576 18.987886078931002 13.354391292049353 12.827342067143569 5.4785512376367516 11.590650073323257 20.766039220437609 15.696604946018757 5.4785512376367516 19.313942375922888
decision_type=10 1 1 1 10 10 9 10 10 2 10 10 10 8 10 10 2 2 10 10 8 10 2 10 10 8 10
left_child=6 2 5 22 17 -2 8 -4 -1 10 -10 25 20 14 -8 -14 -7 -5 -11 -20 -6 -18 -3 -13 -25 26 -9
right_child=1 3 7 4 12 16 13 11 9 18 -12 23 15 -15 -16 -17 21 -19 19 -21 -22 -23 -24 24 -26 -27 -28
leaf_value=-0.023456490170097832 0.028232629431551276 -0.021556084300201523 -0.0034564515916314193 -0.01766989893797196 0.0054356351093446968 -0.010307243213715983 -0.022244319121857793 -0.00078826765736297346 -0.0080333773291069444 -0.024501980576752239 0.029882757486599652 0.014926561715075717 0.026835440476122574 -0.031381160359971683 0.0026163188575588406 -0.0069752111831772124 0.019330379898486967 -0.0045892191265628039 0.020453233147504291 -0.021694888838665879 -0.0028333044936584553 -0.0021925035797866954 -0.0055323908116717427 -0.012587750107324821 0.029856381761301523 -0.017331708882863197 0.014257633610938382
leaf_weight=86 203 118 161 102 391 27 147 152 39 49 31 439 48 145 33 18 126 464 19 19 325 30 68 53 29 23 94
leaf_count=86 203 118 161 102 391 27 147 152 39 49 31 439 48 145 33 18 126 464 19 19 325 30 68 53 29 23 94
internal_value=-2.09653e-06 0.00360676 0.0110167 -0.00290446 -0.00115219 0.0197545 -0.0182434 0.00730149 -0.0108164 -0.00389251 0.00875805 0.00958635 0.00302693 -0.0237964 -0.0176865 0.0176144 0.0114293 -0.00694651 -0.0140711 -0.000620828 0.00168228 0.0151914 -0.014897 0.0129586 0.00242298 0.00305491 0.00496098
internal_weight=3439 2871 1337 1534 1348 386 568 951 243 157 70 790 782 325 180 66 183 566 87 38 716 156 186 521 82 269 246
internal_count=3439 2871 1337 1534 1348 386 568 951 243 157 70 790 782 325 180 66 183 566 87 38 716 156 186 521 82 269 246
cat_boundaries=0 1 2 3 4
cat_threshold=3335 3 512 8
is_linear=0
shrinkage=0.0307728


Tree=30
num_leaves=28
num_cat=0
split_feature=7 38 27 33 38 27 22 22 22 16 38 24 22 16 33 24 27 33 38 5 5 34 5 7 33 38 39
split_gain=223.828 60.2153 50.023 30.9985 24.9865 32.0242 21.8221 21.6488 26.3972 24.9007 21.577 22.6618 21.1281 20.6854 28.4307 19.6788 19.5072 17.6159 17.2261 15.4148 13.9129 13.7121 14.9085 13.5123 13.4051 16.0507 12.9363
threshold=inf -5.7213283767195495 3.7256208424938388 12.431191660124695 -2.5830134152942903 4.3630783395783075 3.4811217321331038 1.7005986908310777 1.4978661367769956 1.0000000180025095e-35 -1.9083559187974097 14.384786667800064 1.8688348091416842 1.0000000180025095e-35 13.088494952047204 13.449320363950635 2.524928003624769 15.491204359752279 0.98354783683235791 14.535818557315441 12.88543904420442 1.0000000180025095e-35 11.960887540086237 14.114929550266593 12.920717903150857 0.26281282443662862 -2.5889154679917747
decision_type=8 10 10 10 8 10 10 8 10 2 10 8 8 2 10 8 10 10 8 8 8 10 8 10 10 10 10
left_child=2 -2 15 23 6 12 13 8 9 -3 -9 19 -6 -5 -15 16 -1 -18 20 -12 -7 22 -8 -4 -14 -26 -11
right_child=1 7 3 4 5 18 21 10 -10 26 11 -13 24 14 -16 -17 17 -19 -20 -21 -22 -23 -24 -25 25 -27 -28
leaf_value=-0.006104402583009939 -0.024298527144128546 -0.012539749237297709 0.010477097758563546 -0.0060624874949174777 0.0089022613504151447 0.018555892831603665 -0.036262790829433574 -0.018281037226667601 0.021180358763638503 0.024797902132219978 0.012161060137830547 -0.023107257576710866 0.010247979203257431 -0.011465726213190391 0.024579545114731254 -0.010097599272952505 0.0072316675171327522 -0.023227717079829138 -0.0091475703612558835 -0.016728857534430826 0.009137372856242304 0.00011135692443877027 -0.0041088216753946537 0.021569228776750618 -0.0074082381600488805 -0.034747239554165969 -0.00096161097799986144
leaf_weight=218 299 148 273 110 114 218 36 225 43 30 73 37 30 30 67 199 335 19 38 23 466 36 22 168 109 25 48
leaf_count=218 299 148 273 110 114 218 36 225 43 30 73 37 30 30 67 199 335 19 38 23 466 36 22 168 109 25 48
internal_value=-2.03202e-06 -0.012935 0.00476356 0.00765197 0.00526199 0.00760171 -0.00251117 -0.00751604 -0.000919508 -0.00512435 -0.0124726 -0.00264643 -0.00127296 0.00307239 0.0134315 -0.00176252 0.00113728 0.00559684 0.0110188 0.00523952 0.0121392 -0.0148069 -0.0240665 0.0147027 -0.00834597 -0.0125088 0.00894589
internal_weight=3439 926 2513 1742 1301 1000 301 627 269 226 358 133 278 207 97 771 572 354 722 96 684 94 58 441 164 134 78
internal_count=3439 926 2513 1742 1301 1000 301 627 269 226 358 133 278 207 97 771 572 354 722 96 684 94 58 441 164 134 78
is_linear=0
shrinkage=0.0307728


Tree=31
num_leaves=28
num_cat=0
split_feature=7 14 39 9 17 9 32 26 25 21 26 7 11 17 9 14 9 12 26 21 17 7 26 14 9 26 25
split_gain=210.393 62.5109 32.8278 28.3344 21.0758 17.0051 18.7309 17.8399 16.4085 15.0103 25.4309 21.0388 18.2874 19.0349 17.772 20.8014 12.7432 12.2604 12.2249 12.1357 21.1295 16.5216 15.8056 15.4496 13.2699 11.3831 10.9331
threshold=1.0000000180025095e-35 15.253229041668417 -2.0211707897525453 18.959290676670268 5.6664207015582333 18.767754867462859 11.694895248048452 3.5114340430413216 15.236567589864732 5.6076369307404796 4.3107766033702406 14.86267598603623 16.604343008033904 4.2268071048866842 21.135318477302274 20.700868782039894 19.4854604867954 13.810131069787467 5.7884287761319815 3.3842466058243152 3.6242520361853052 14.114929550266593 5.2548844000372066 19.983256570988129 20.182893646872554 5.7884287761319815 1.0000000180025095e-35
decision_type=10 10 10 10 2 8 8 10 10 8 10 10 8 2 8 10 10 8 10 10 2 10 8 10 10 10 10
left_child=3 26 4 5 19 6 -1 -7 9 10 14 12 13 -12 15 16 -4 -5 -6 -3 -21 22 23 24 -22 -11 -2
right_child=1 2 8 17 18 7 -8 -9 -10 25 11 -13 -14 -15 -16 -17 -18 -19 -20 20 21 -23 -24 -25 -26 -27 -28
leaf_value=-0.0024668994765112426 -0.013483032355414579 0.00010831617436085888 -0.0035309590627261695 -0.0042468566648796169 -0.020403331282048437 -0.014233201199935944 -0.017334432508783186 -0.033472687944608774 0.014357502867512632 -0.0029733436223964042 0.012817374207373274 0.021589225679223299 0.02263868447219922 -0.02679160373661708 -0.010442991428550367 0.026548512157624087 0.0079243489976143326 -0.023837815633835337 0.011445164992463293 0.035271018246068514 0.010760184840886755 0.022927750160660027 -0.014337819432177018 0.02548460723319201 -0.016073168730136918 0.011105204674989672 -0.0019117344127409009
leaf_weight=114 90 42 163 363 25 87 271 96 156 362 20 151 25 27 83 39 211 33 21 55 137 150 23 62 20 64 549
leaf_count=114 90 42 163 363 25 87 271 96 156 362 20 151 25 27 83 39 211 33 21 55 137 150 23 62 20 64 549
internal_value=-1.96947e-06 0.00474829 0.00763345 -0.0121979 0.0140502 -0.016603 -0.0129321 -0.024326 0.00499476 0.00371914 0.0064312 0.0150624 0.00137418 -0.00993672 0.00255064 0.00516195 0.00293179 -0.00587944 -0.0058638 0.0159235 0.0174095 0.0149034 0.00992958 0.0124782 0.00734192 -0.000858257 -0.00354149
internal_weight=3439 2475 1836 964 535 568 385 183 1301 1145 719 223 72 47 496 413 374 396 46 489 447 392 242 219 157 426 639
internal_count=3439 2475 1836 964 535 568 385 183 1301 1145 719 223 72 47 496 413 374 396 46 489 447 392 242 219 157 426 639
is_linear=0
shrinkage=0.0307728


Tree=32
num_leaves=28
num_cat=1
split_feature=37 9 9 9 11 17 19 32 31 11 9 21 26 28 32 19 24 11 17 1 31 24 1 19 9 26 24
split_gain=80.8196 76.2178 46.23 31.4229 39.1594 31.3681 30.6723 19.4994 18.3471 18.2996 17.5303 17.2492 27.96 21.1 16.7869 16.153 15.8864 14.6699 14.3931 19.3893 13.6008 13.0554 12.6878 16.4524 12.3271 12.0188 19.2117
threshold=0 1.0000000180025095e-35 19.776484075262378 18.959290676670268 14.222435824720213 3.7256208424938388 14.654938351560171 13.373833094424862 23.051190939756989 15.882439148000609 17.733088651034588 5.4680512393485436 3.3842466058243152 3.0201273556387074 15.21066535268697 16.017001886504111 14.554823570380977 15.882439148000609 4.6395599436855051 14.80659816909858 19.767066319881046 8.8468224058174112 15.391620169927107 14.436885117962907 19.776484075262378 3.5114340430413216 11.393577980560702
decision_type=9 10 10 10 10 2 2 10 10 10 10 10 10 10 10 2 10 8 2 10 10 10 10 2 8 10 8
left_child=1 -1 16 4 6 7 -3 25 21 18 -8 12 15 14 17 20 22 -13 -7 -20 -5 -4 23 -2 -25 26 -6
right_child=2 3 8 11 5 9 10 -9 -10 -11 -12 13 -14 -15 -16 -17 -18 -19 19 -21 -22 -23 -24 24 -26 -27 -28
leaf_value=-0.021009585414722216 -0.020995098905869345 -0.010559110473731032 -0.019194350639792888 0.017393044448890085 0.028050189137580325 -0.018625170649845764 0.00385767575925126 -0.016383209964258814 0.012177319142079734 -0.042151584002617683 0.017770605678251304 -0.0059424181986440115 0.015790887194893678 0.0095464485110973215 -0.017579849216385494 -0.023737810658597158 0.0016099500314567519 0.011982887059430358 0.027914428006520869 -0.011623362914465434 -0.0029700546840704944 -0.0015394072588494215 -0.025363204217969299 -0.0057770349438951707 -0.024276567532570414 0.030740617056682022 -0.018293708253306635
leaf_weight=109 134 84 42 50 15.999999999999998 112 189 25 90 22 157 97 468 334 54 22 70 78 17 38 82 713 79 272 39 28 18
leaf_count=109 134 84 42 50 16 112 189 25 90 22 157 97 468 334 54 22 70 78 17 38 82 713 79 272 39 28 18
internal_value=-1.90889e-06 0.0039919 -0.00554195 0.00545413 0.000314869 -0.00873124 0.00612121 0.00655946 -0.000955978 -0.0157698 0.0101708 0.008516 0.0120482 0.00461359 -0.00258105 0.000674519 -0.0121591 0.00204715 -0.0122944 0.000597409 0.00474324 -0.00252154 -0.0139984 -0.0119809 -0.00809691 0.0158105 0.00351518
internal_weight=3439 2000 1439 1891 706 276 430 87 845 189 346 1185 622 563 229 154 594 175 167 55 132 755 524 445 311 62 34
internal_count=3439 2000 1439 1891 706 276 430 87 845 189 346 1185 622 563 229 154 594 175 167 55 132 755 524 445 311 62 34
cat_boundaries=0 1
cat_threshold=40
is_linear=0
shrinkage=0.0307728


Tree=33
num_leaves=28
num_cat=0
split_feature=6 38 38 38 40 16 27 27 8 6 1 16 25 2 38 27 25 27 34 25 27 8 8 9 9 38 25
split_gain=193.134 59.4857 52.1611 36.8068 27.6817 23.1454 22.4564 21.5853 24.05 22.5952 20.2595 21.4272 20.7829 16.5386 15.6363 19.2009 15.2077 18.507 15.3674 14.6477 12.5413 12.0414 13.1579 11.6885 11.3838 12.8957 11.217
threshold=7.5383917497101374 -5.7213283767195495 0.26281282443662862 -2.5830134152942903 3.6300825050489327 1.0000000180025095e-35 5.310736838221497 4.8242976514536702 13.216765458686227 11.367332891173017 15.200257847304583 1.0000000180025095e-35 10.876315131524342 73.500000000000014 -3.8283171000057954 5.6276146440043524 13.797639200119558 3.1132683346437333 inf 12.771450351194598 2.8617925509761908 13.342302114675727 14.823462183370248 18.959290676670268 17.733088651034588 -3.8283171000057954 11.884295616653743
decision_type=10 10 10 8 10 2 8 10 10 10 10 2 10 10 10 10 8 8 8 8 10 10 10 8 8 10 8
left_child=1 -1 3 5 10 14 20 8 23 26 11 24 -13 -4 -2 -16 17 -6 -19 21 -7 -11 -23 -5 25 -3 -10
right_child=2 4 13 7 16 6 -8 -9 9 19 -12 12 -14 -15 15 -17 -18 18 -20 -21 -22 22 -24 -25 -26 -27 -28
leaf_value=-0.022543113317065353 -0.017265534725006533 -0.028758249972395542 -0.0098676127170302039 0.0076952012477681008 -0.013253488890316132 -0.014667249054916617 -0.011970706066637414 0.014122083781851457 -0.029887424414872805 -0.012798215588539372 -0.02815401429385498 0.027575405737075467 -0.0083670077083811533 0.010685734509012206 0.00096614504197790885 -0.032176118668374144 -0.016297203016814168 0.0060543591390064024 -0.020656028780779261 -0.0013281543070579258 0.012858790358516893 0.014910492003815909 -0.0011803441953534882 0.017830661433589901 -0.028787858377871546 -0.0029618471730489771 -0.0032172417114807216
leaf_weight=309 84 25 269 273 72 17 51 508 28 22 71 25 39 43 206 18 57 280 22 238 201 194 64 178 44 69 32
leaf_count=309 84 25 269 273 72 17 51 508 28 22 71 25 39 43 206 18 57 280 22 238 201 194 64 178 44 69 32
internal_value=-1.85017e-06 -0.0112873 0.00471052 0.006444 -0.00634696 -0.000183157 0.00641178 0.00893188 0.00636956 0.0022139 -0.0140141 -0.00904415 0.005673 -0.00703494 -0.00594302 -0.00169707 -0.0014905 0.000766141 0.00410857 0.00428462 0.0107123 0.00905547 0.010919 0.0116954 -0.0158695 -0.00982259 -0.0156633
internal_weight=3439 1013 2426 2114 704 577 269 1537 1029 578 273 202 64 312 308 224 431 374 302 518 218 280 258 451 138 94 60
internal_count=3439 1013 2426 2114 704 577 269 1537 1029 578 273 202 64 312 308 224 431 374 302 518 218 280 258 451 138 94 60
is_linear=0
shrinkage=0.0307728


Tree=34
num_leaves=28
num_cat=0
split_feature=6 40 38 38 38 19 33 19 38 21 25 38 9 19 1 24 33 33 38 40 25 10 38 1 33 33 6
split_gain=181.571 51.4369 43.6738 36.3424 21.4941 18.1279 23.1956 18.0697 15.6714 24.034 14.894 14.5738 13.2747 12.7921 13.5102 13.2962 12.4383 11.3078 12.8654 12.6407 11.2814 10.9324 13.9264 12.191 10.9071 10.8045 11.6895
threshold=1.0000000180025095e-35 4.1245547609665598 0.26281282443662862 -2.5830134152942903 -5.7213283767195495 15.054750333721215 13.088494952047204 17.304495861393516 -1.4668734283391724 5.3636340903656388 13.797639200119558 -4.7522081040924382 21.851698363778592 15.81321654680084 14.553377453281966 13.140293629564143 11.641080936872051 13.244293579173247 -1.597017324694926 3.9867941910001767 8.5161919696399728 13.466289592039738 -3.5035366510958483 15.838735055351512 13.634883238066616 14.180935616215857 11.589432592183313
decision_type=10 10 10 10 10 2 8 2 10 10 8 8 10 2 10 8 10 8 8 8 10 10 10 10 8 8 10
left_child=1 8 3 10 -3 -5 -7 25 9 17 11 -2 24 15 -15 20 -16 18 19 -1 -6 23 -23 -13 -4 -8 -27
right_child=2 4 12 5 13 6 7 -9 -10 -11 -12 21 -14 14 16 -17 -18 -19 -20 -21 -22 22 -24 -25 -26 26 -28
leaf_value=-0.0044866445169641431 -0.012211780499838778 -0.017806032066243288 -0.0042647064203528741 0.0010632666448255293 -0.014639367262375311 0.01526111275865083 0.0082901877940708066 0.013170517964843071 -0.0034811031228534819 -0.034221710519953569 -0.0067356784158935472 0.0042675120820057097 0.0058014895976867282 0.027842793164324919 -0.018754469681397483 -0.017874930508687086 0.0085581932738049531 -0.027929714199390648 -0.021912270235164101 -0.022581381832993738 0.0052520861400766816 0.010407601043760669 -0.028110241183418365 0.019834860192775101 -0.017305618563959249 -0.023931477058772209 0.0010376279326945786
leaf_weight=144 52 77 148 263 36 482 234 270 63 89 221 290 67 26 20 52 75 67 120 49 108 15.999999999999998 20 57 103 19 271
leaf_count=144 52 77 148 263 36 482 234 270 63 89 221 290 67 26 20 52 75 67 120 49 108 16 20 57 103 19 271
internal_value=-1.79321e-06 -0.0116501 0.00429044 0.00583454 -0.0032225 0.00841971 0.00993597 0.00670333 -0.0178917 -0.0198274 -0.000230359 0.00307464 -0.00636778 0.000319872 0.0081875 -0.00453719 0.00280816 -0.0164561 -0.0140001 -0.00908065 0.000279223 0.00515008 -0.0109912 0.00682468 -0.00961616 0.003371 -0.000598279
internal_weight=3439 926 2513 2195 394 1539 1276 794 532 469 656 435 318 317 121 196 95 380 313 193 144 383 36 347 251 524 290
internal_count=3439 926 2513 2195 394 1539 1276 794 532 469 656 435 318 317 121 196 95 380 313 193 144 383 36 347 251 524 290
is_linear=0
shrinkage=0.0307728


Tree=35
num_leaves=28
num_cat=5
split_feature=4 36 36 34 35 4 11 11 9 15 0 4 12 0 36 20 2 0 15 1 35 34 12 4 1 20 2
split_gain=178.416 127.508 38.0039 31.6064 22.364 21.3343 20.1254 24.1329 19.6851 19.5651 21.5596 18.052 18.0491 17.8211 16.8088 15.8841 15.8118 15.201 14.9736 14.2704 14.0309 13.9472 17.096 12.8918 12.2837 11.8229 11.7748
threshold=10.780121090928551 0 1 1.0000000180025095e-35 2 12.04976963252672 16.29859337788761 14.979357750797517 19.637246919392837 12.02507819262625 14.442441928042655 12.630009732891127 11.238692430563116 13.03225372986063 3 4.4005842009683471 59.500000000000007 14.092372672620726 7.2438559490043781 13.503835597386816 4 1.0000000180025095e-35 11.799561036834691 1.0000000180025095e-35 15.391620169927107 4.4005842009683471 79.500000000000014
decision_type=10 1 1 10 9 10 10 8 10 10 10 10 10 10 1 10 10 10 10 10 9 8 10 10 10 10 10
left_child=4 3 6 14 9 8 7 -3 17 -1 13 12 -5 -11 19 23 -16 20 -7 -2 25 -21 -23 -15 -10 -4 -13
right_child=1 2 5 11 -6 18 -8 -9 24 10 -12 26 -14 15 16 -17 -18 -19 -20 21 -22 22 -24 -25 -26 -27 -28
leaf_value=-0.02049630997785384 -0.01771095514807763 0.010344869489860338 0.020288502824054182 -1.1444575631812181e-05 -0.021039983824268811 -0.0049363775180421825 -0.011545117942199368 0.026520238982379322 0.00099361354123159986 -0.016426966204714306 -0.033924823269512849 0.0036781493804912886 -0.03305658800258323 -0.0026833457884146085 -0.022996232851767797 -0.016877049734597943 -0.0080165702097756142 -0.034499880493568925 0.010288721146343235 -0.00054408450377665691 -0.010319560102147622 -0.0049165367771435917 -0.042531168671747714 0.022967498842175506 0.031597052981897432 -0.01130022240666478 0.019982494048287797
leaf_weight=86 60 144 33 45 325 67 20 222 27 37 18 390 24 28 94 19 230 17 703 553 103 35 17 55 23 17 47
leaf_count=86 60 144 33 45 325 67 20 222 27 37 18 390 24 28 94 19 230 17 703 553 103 35 17 55 23 17 47
internal_value=-1.73801e-06 0.00311589 0.00983409 -0.0031125 -0.01576 0.0064838 0.0180461 0.0201562 -0.00190198 -0.00869841 -0.00223586 0.0031221 -0.0115054 0.00186775 -0.00633377 0.00850407 -0.0119924 -0.00689409 0.00896394 -0.00334614 -0.00382678 -0.00197684 -0.0172136 0.0143142 0.0150712 0.00954834 0.00543171
internal_weight=3439 2871 1376 1495 568 990 386 366 220 243 157 506 69 139 989 102 324 170 770 665 153 605 52 83 50 50 437
internal_count=3439 2871 1376 1495 568 990 386 366 220 243 157 506 69 139 989 102 324 170 770 665 153 605 52 83 50 50 437
cat_boundaries=0 1 2 3 4 5
cat_threshold=744 3 8 200 8
is_linear=0
shrinkage=0.0307728


Tree=36
num_leaves=28
num_cat=2
split_feature=4 14 6 33 40 25 35 33 6 6 14 20 4 20 1 4 25 20 6 5 11 25 35 40 14 11 40
split_gain=167.604 57.2053 30.2327 35.7831 26.3945 21.8799 21.0088 20.8556 19.9584 19.3272 18.7433 16.2273 16.7964 15.7395 15.4622 17.7942 14.5335 14.8701 13.9924 17.986 13.554 21.5125 13.2815 14.1929 13.1944 12.5728 12.399
threshold=10.780121090928551 16.164835336765179 10.667809111730879 13.088494952047204 4.1245547609665598 8.5161919696399728 0 12.431191660124695 10.209167461435081 16.440152966917214 20.244511599140413 4.5798392285869785 1.0000000180025095e-35 5.0139575654555903 15.391620169927107 14.879197825387992 11.681000165942368 3.5694334999727624 11.589432592183313 7.8989670937473049 12.966009397144871 12.262367907297827 1 4.4974641686042016 20.964021593357717 14.709122612082174 4.2388644012453218
decision_type=10 10 10 8 10 10 9 8 8 8 10 10 10 10 10 10 10 10 10 10 10 10 9 10 10 8 10
left_child=6 5 4 22 8 -2 11 -7 10 -8 -3 12 -1 25 15 24 -9 -18 -16 -20 21 -6 -4 -24 -5 -10 -21
right_child=1 2 3 14 20 7 9 16 13 -11 -12 -13 -14 -15 18 -17 17 -19 19 26 -22 -23 23 -25 -26 -27 -28
leaf_value=-0.016971927685699918 -0.013552912327994953 -0.0045810848221058504 0.003072089358920753 0.00029791964083342024 -0.032938031580062102 0.0048223885277441517 -0.0075787120142846156 0.0033104235248484345 0.0059799725118955252 -0.024787345304455789 0.028797512141921531 -0.036545997711489475 0.00036981519230604322 -0.036905822262018911 -0.0091603251089497299 -0.015257157742478456 -0.018774621139653537 -0.0044630575927082578 -0.0060852807176124931 0.019390830159998006 0.0080590287970991742 0.0089379226544455941 0.025749534392943352 0.013194967331531892 0.023855008566338869 -0.016802709912839379 0.0082540912327810044
leaf_weight=85 160 66 63 168 21 330 83 131 32 242 21 18 140 26 44 64 99 225 69 119 286 26 146 205 26 81 463
leaf_count=85 160 66 63 168 21 330 83 131 32 242 21 18 140 26 44 64 99 225 69 119 286 26 146 205 26 81 463
internal_value=-1.68455e-06 0.00302001 0.00606269 0.00852815 3.35491e-05 -0.00318126 -0.0152751 -0.00106729 -0.00808325 -0.0203925 0.00347582 -0.00843073 -0.00618151 -0.0153181 0.00524663 -0.00118673 -0.00533892 -0.00883604 0.00763484 0.00877 0.00554225 -0.00977261 0.016082 0.0184171 0.00345506 -0.010351 0.0105312
internal_weight=3439 2871 1926 1367 559 945 568 785 226 325 87 243 225 139 953 258 455 324 695 651 333 47 414 351 194 113 582
internal_count=3439 2871 1926 1367 559 945 568 785 226 325 87 243 225 139 953 258 455 324 695 651 333 47 414 351 194 113 582
cat_boundaries=0 1 2
cat_threshold=8 4
is_linear=0
shrinkage=0.0307728


Tree=37
num_leaves=28
num_cat=0
split_feature=6 40 18 39 2 6 23 16 29 17 18 16 39 24 7 2 1 39 1 40 23 24 2 2 1 23 2
